{"Name":"RbmSpin","Nhidden":144,"Nvisible":72,"UseHiddenBias":true,"UseVisibleBias":true,"W":[[[-0.008999790986017442,0.004917242984014052],[-0.011125372027995975,0.0005028260500233067],[0.015797886101612174,-0.017860956113459184],[-0.015104361122790835,0.007497011932354788],[0.018455577741987767,0.004779105521931261],[-0.009326490100472495,-0.007031912568023892],[-0.0025215662888990404,-0.005382082772369877],[-0.004454856256962689,-0.011942275359404817],[0.0055755510441043874,-0.01622944877244302],[0.007919020329099427,-0.009485021019182523],[-0.017658876004668027,-0.003218151808849103],[-0.0009772347297597257,0.010417943681034485],[0.005119652095157349,0.0015177462328155073],[-0.0006337878321331717,0.006860472912332372],[0.011223484835382252,-0.00021573567191370338],[-0.007778953966516122,-0.01089620300879303],[0.010199026470004265,-0.00789371237639551],[0.002241565058525415,-0.008181054559060744],[-0.01101332390334688,-0.0017459045109936523],[0.01225514377207436,0.002929295983635515],[0.0044493769625889865,0.00914615941357817],[0.008105345660271638,0.0036349191248089517],[-0.008193357502987246,-0.008444383067899325],[0.002747542626702006,-0.020917715551821932],[0.010595727464371306,-0.005011891235396502],[-0.0011904894447819765,-0.011241230733989641],[0.009131062117219705,0.002189745925960281],[-0.0035935311284749994,0.01542618703750459],[0.015159121316934945,0.0037544942422543374],[-0.00450467757155283,0.006716323110960054],[-0.0029069651498607515,0.0056621201742392884],[-0.004124361728459646,-0.0035691847722243352],[-0.013539283963565843,-0.003926913112136444],[-0.019030032863277136,0.02634648576442205],[-0.009246558841767918,-0.005047499872459237],[-0.000673762050631004,0.0013129214262949896],[-0.005383724165334211,-0.004219046697559658],[-0.00831055408752412,-0.0005053722901137495],[-0.00759035188383987,0.009223455651959207],[-0.007787918360643132,-0.013472971996742003],[-0.0065610325449705015,-0.018969844351550587],[0.0015066734236687937,-0.011110183113397752],[-0.009228161000013405,0.0005988786084719393],[-0.011793231771359802,0.01231857505456051],[0.0024588381722884306,-0.0065939863953945336],[-0.004882933003450584,-0.0014708450603564236],[0.0003218552652572099,0.007941917712340336],[0.005153188536192016,0.0011167035652371892],[-0.007779051164450263,-0.000813456295348225],[-0.012155700382108116,0.006716238072711465],[-0.018750339019483253,0.009848273510703654],[0.011990800389896117,-0.010832480629291801],[0.01727197119075753,-0.0023697833639608552],[0.0029486965864058876,0.016930034083858077],[0.0003043027632433649,-0.002320538352497271],[-0.003121589170519211,-0.005738346072425453],[0.0036744706462921457,0.015133147257502517],[-0.007203224257322152,-0.00786286355230294],[-0.0026772605759669186,-0.0008960832252927098],[-0.020528880601138503,-0.001180593956017347],[-0.0025045528931364764,-0.008759845295448054],[-0.017477115249878668,-0.0036050821515052596],[-0.013265881468760562,0.006855557395865902],[0.02220835787672479,0.006721225441444617],[0.005516041272011585,0.0030869497599898877],[-0.01575329373176985,-0.012964510040164945],[0.0017774250449851103,-0.017279739115236052],[0.007039292703796433,-0.006011811000750844],[-0.0014760522932179168,-0.00034245558740653083],[-0.016279158886037596,0.008188444012382199],[-0.0013633915591358997,-0.004630270941863399],[-0.006015937567122995,-0.005512895182910187],[-0.0007915661064665397,0.0061089694164510894],[-0.01143555863287107,-0.012354190551829356],[0.012273575722783743,-0.0033486199807566766],[0.01143046911753546,-0.00272804740398524],[0.012617774982503157,0.009729107814415109],[0.008484439154026255,0.005903512904416666],[0.002460681419228565,-0.01625331565551729],[0.0023528285758907153,-0.009331805404411638],[0.0006419585424662744,-0.0021321078431102915],[-0.0019788555319939644,0.006165040258447765],[-0.005434762309872859,0.016261010574851364],[0.009755835924425195,0.0025921783344794768],[0.0047510728316784755,-0.0158802121254991],[0.004311124385181354,-0.016540388452371914],[0.0030883429507142634,0.012651259137332184],[0.0038105496133880676,0.008542943038949062],[0.020201177171712766,-0.009843204252910454],[0.01337655156818509,-0.0006614086227374138],[-0.014158801641874464,0.012202425061034028],[0.01168238911877556,-0.003108484671081778],[-0.003784718829302278,0.005796700152792618],[-5.9600251692065015e-05,0.0053045486630810814],[0.01533053103712622,-0.008117596430650145],[-0.01104924306603625,0.012900159538412656],[-0.0008533291771409398,0.015578791139959173],[0.00012828051867652408,-0.0029751260927758246],[0.008880007621970196,-0.01249999436985915],[0.015000927511079827,-0.024888021139045636],[0.003737894842303577,0.036865068640080885],[-0.0002147621678190607,-0.013542880692595417],[-0.006012688266590376,0.003415064756350827],[-0.001096377176551678,0.010263898966707987],[0.005320988383749836,0.010394144158064887],[-0.009798044099394897,-0.021007848211547806],[0.009302728970478765,-0.004433833662158941],[0.0009903550855660955,-0.004282783640104932],[0.004252690466080255,-0.00538890913777182],[-0.014967042114776308,0.01229076538892115],[-0.007955050510309753,-0.006129846513122907],[-0.007377056649665364,0.015590593408344806],[5.5880881944966616e-05,-0.007115806938354747],[0.010682164218005254,0.014157638313178147],[-0.0031824551421548762,0.002480209576545034],[-1.0931665977114216e-05,0.006813574524122364],[0.0035803603560546123,0.009239226562874753],[0.021508089083322718,-0.014758563668695985],[-0.002888810778493217,0.0022137378224982695],[-0.006074161669749433,0.008742359304482005],[0.004652120978437376,-0.008138908446332853],[-0.008151353824742334,-0.0025232934128399326],[0.005973126558254692,0.00029454978353073255],[-0.0077020188191597675,0.0006243334987604734],[-0.019836545896624057,-0.01596284899733916],[-0.0005647558128249801,0.013470732491729179],[0.007797617637585511,0.0025309943276390144],[0.0004163043906728241,0.00942642426410619],[0.0035259385296476384,0.0044375183431761625],[0.004039653504215048,0.015860078340790847],[-0.008821984207030793,-0.013056820560166162],[-0.005230658727464829,0.005301890359695484],[-0.017217551433853596,-0.002560006038405498],[-0.0007048071375547787,0.010773491828230414],[-0.011647270400376972,0.007119893646438902],[0.0022186730269898114,0.0009252938758687803],[0.022235598271735588,0.015164750131398601],[-0.0033853723928935855,0.002662510749864262],[-0.0053918946784727246,0.015780046701868757],[0.004819860830434826,-0.00929328692574101],[0.004589330313723685,-0.002608819662396315],[0.005259842429636152,0.009683136293837052],[-0.01403173998240296,0.009358729205636776],[-0.0009545896209002292,-0.006160745163132026]],[[0.006421566798831886,-0.0011867326871712236],[-0.02022039819809174,0.0061884021886712175],[-0.011251373417665278,0.009944547320611653],[0.0027441038525644933,-0.0052376920119111894],[-0.0018289286820386257,-0.0054376832543054305],[-0.00549830507508083,-0.0014301377773207318],[0.01040894061888891,-0.001791808702323234],[0.011470647051089787,-0.0017007830586063457],[0.00457437200112981,-0.00437742284978426],[0.004898502845800168,0.01069831299714163],[0.0025032874614709264,-0.003197205784663356],[-0.0020992293128608004,0.006105480266185646],[0.00947666244149652,-0.005359345734498576],[-0.010724273521726948,0.021200159069536303],[-0.003323088087976463,0.00025873214581344467],[0.002140350341697094,-0.009735779181850033],[-0.006978034071718201,0.0030037037427423255],[0.008036929719787058,-0.014472053514960248],[0.012860109540233805,-0.0031085843143869416],[0.0064888287424194,-0.01371559044726413],[0.031507961717662326,-0.0046777581229584045],[-0.01041817785735458,0.005674945388271313],[-0.0018221674649312861,-0.017604374657624645],[0.00017530493040352575,-0.004980270495544897],[-0.004956521493074353,0.014683459964305208],[0.011026221042925862,0.00021432827410201828],[-0.020608743455754905,0.01715086110973021],[-0.0020418376590241967,-0.014386328203944412],[0.004264123257234592,-0.010385710763656181],[0.0008772620268136823,-0.002991127902872928],[-0.016865009567859395,0.015531804851599003],[-0.011091385905471629,0.015024832144934677],[0.005552898808023903,0.013856984648235454],[0.003936526226002154,-0.010471344289687318],[-0.007846496492764778,0.015604994173357829],[0.01012282386364817,-0.0018171158421397262],[0.00290756254311675,0.004184511190757939],[0.00020864595763577074,0.011373742144873621],[-0.011644973919802487,-0.0027631671824088627],[0.010793338103167727,-0.007601764242565686],[-0.02019481326905412,-0.0028710543991261376],[0.0018669152502013117,0.006942134683592912],[0.016661317691871635,0.005791048291556091],[-0.0099395058058003,0.0031732890706592694],[0.005007305981246026,-0.007830899532093418],[-0.01074726375786903,0.006047569925069574],[0.0008324711498661121,0.001984299672776595],[-0.012347696582762418,-0.011276702015875073],[0.006325493312114343,-0.0020288539986991665],[-0.0006780560574755358,0.00735072808158513],[0.005537899702014405,0.009444314492475812],[0.010149266965107501,0.001978962493184948],[-0.010285509173275236,-0.024399471504146668],[0.006047438098548857,0.009697308110244232],[0.022581595437705555,0.0033475585383932836],[-0.003882581497949418,-0.0015621576285867666],[-0.006840858512485162,-0.008436482590421492],[0.01269981437753436,-0.012614531976551834],[0.021602853250548656,0.00034419609661671415],[-0.002766877391943866,-0.004869309291503882],[0.005683244714563513,-0.007318653067564747],[-0.016266561754355483,-0.0024025449221328973],[-0.0019111095166272998,-5.263227062315577e-05],[-0.01957679075227159,-0.00646820533133762],[-0.005155495854999459,-0.003840389963896299],[-0.016354590062614787,-2.5305438871535822e-05],[0.01336237044685795,-0.0019557975683696547],[-0.0065446296312673055,0.024931151485563244],[-0.011612432251780594,0.008907626727358443],[-0.0011377900312351387,0.01178224252078461],[-0.005431501754722357,0.011589604961572192],[0.0007355668985229898,-0.002465479040082665],[-0.026216797801640303,0.0028324990848036494],[-0.013710954282675445,-0.00016923262959563714],[-0.005857445720663139,-0.005548457539873622],[-0.011421501761907394,0.004366667910939785],[0.0067646415313421665,-0.017893712981135252],[-0.008677070541417389,0.0036199907198395075],[0.007005969497666013,0.011234210447669271],[0.007224460713752925,-0.018197672910803653],[0.004224218912860897,0.005665717925209538],[-0.006168001611245261,0.0012599863428983606],[-0.002483887819133307,-0.0050584998020231356],[-0.009157605931428472,-0.005434253396824011],[-0.021327738590388404,-0.0204268928674565],[-0.007636089927745912,-0.0014798755858894262],[-0.0015226736648133261,-0.00546363545804001],[0.017590214313615214,0.014933842077686919],[-0.01449535993942773,0.010394444893990624],[0.0025383948201055,0.0027944021288447344],[-0.009481979926030051,-0.0024025426064837666],[0.005720512135558573,0.005526695376442167],[-0.010325620931037215,0.0020365297813247636],[0.003058259811371654,0.004144775423759794],[-0.0017565232171803005,0.006855746610774198],[0.0022658417020966102,0.0007053664109645803],[-0.0004456639450738021,-0.015242808506179954],[-0.0055888009073931655,0.0055180641437940275],[-0.006878209628201706,-0.002386711006940556],[-0.0005741212995677503,-0.01993577855798521],[-0.005360184312278226,-0.006484220210443103],[-0.004923926692007971,-0.004073584709035851],[0.0055108266390635555,0.006400803792861544],[-0.004708114879653839,0.005560555225827967],[-0.00040084167472062646,0.010918550175581587],[-0.0031778125821960213,-0.0035644521368925746],[-0.004467537800031289,0.0022310166057223774],[0.026685951630831452,-0.01550627831892742],[0.006430946515523163,0.0022864796307217198],[-0.0021748382395482416,-0.013655867165067385],[-0.007455784847680662,-0.00500341520344575],[0.011529684869418116,0.002340631499682579],[0.016907257823642018,0.01301991590239026],[-0.0011436855090060927,0.0009512065354427275],[0.0066300771925160654,-0.006937878688002775],[0.0045797679622916095,0.0002115288739782266],[-0.0075887481661784635,0.01214098342204138],[0.016701408740527206,-0.008028989319790417],[0.015386049756525327,0.0007433692975319306],[0.012683782733225457,0.017998281444007055],[-0.0024937922307058935,0.010263725704785828],[-0.004715537459035548,-0.009056359262276558],[0.012409489318281211,-0.008991878768680425],[-0.006489071604143904,0.005846725314800321],[-0.012603915350010087,0.006359130893078754],[0.015963127561432006,7.81533110634702e-05],[-0.00039445753376404964,0.004940114176768174],[0.015903858193388118,-0.006449516810384142],[-0.015227467193389532,0.008192737672046077],[-0.005506723335149218,0.0032770242878025556],[0.011705939787635226,0.00015743641091906738],[0.004307823116455303,0.0009865135376309962],[-0.0021569834884295016,0.023465643373667223],[4.086471515821026e-05,0.013735939521860823],[0.005813314074388038,0.00946378042702534],[0.02708784568817702,-0.007901361462138667],[-0.0003259930144225737,0.016470537132431295],[0.01776517619571343,-0.0007435976450359866],[-0.0008275052792213876,1.3679980919852237e-05],[0.0016303874392062123,0.0010558318864945498],[-0.011628754841824534,-0.0038625836770219153],[-0.0076293861023471864,0.006653084961494543],[-0.007057091844592877,-0.00941927493365662],[0.007194726424048827,-0.003541709774315899]],[[0.0007176040732670184,0.01658543113115721],[0.0021965699875161346,-0.005973631419258921],[0.0059076573689491735,-0.01063653660444697],[0.013441803529069192,-0.00043350785415450225],[-0.0032444050688257074,0.014166279442397523],[0.007404983599423319,-0.0018129860956136803],[-0.004131251617539636,-0.0013083775457288654],[-0.007591406265230401,0.0028442830074455502],[0.0013868797672963193,-0.010552009855096148],[0.020443294048950806,-0.0031828958455054762],[0.00405309284934685,0.008524797892227204],[-0.008537110870550896,0.002007207208294483],[0.01560227206259852,0.021118241360525855],[0.012270748817888987,-0.01946083017649255],[0.0069432776532068466,-0.004042783293350158],[0.006287794915665247,-0.002451308186118271],[-0.0057272132123600775,-0.004252362997376371],[3.215567159889506e-05,0.02155605521320722],[0.02184241044153326,0.012725483529371338],[0.002372069959927614,0.017785598812255967],[0.012689699375537163,-0.00772273571293947],[0.006645286548069618,0.01916263153073221],[0.01136796776579049,0.0021332653091181877],[0.004553399256996673,-0.005029131208757239],[-0.005920561796953661,0.018712323756291577],[0.0011518948988708002,0.005830893791690226],[1.5052011669088375e-05,-0.01212266133344191],[0.002603258343178178,0.02598245113034385],[-0.004341079038802425,0.004727786650536926],[-7.355935556080015e-05,-0.006145230686360245],[0.013320968140533374,-0.014392425209621244],[-0.0007518638278989696,0.0044706960173190174],[0.004722843921663494,0.0040350087847671415],[0.0017084393314695634,0.008030708645451322],[-0.002960280468149879,-0.013247879991040067],[-0.0009951401223820978,0.010506577193185365],[0.00017742968170764714,0.013312396864949007],[-0.02296617599246964,-0.0019512204385733263],[-0.005901417690067784,-0.010600453449030175],[-0.006339625909384035,0.0014533587731238916],[-0.004407538636142527,-0.0059179905891365535],[0.02038281594356402,0.007074049259007666],[-0.01256504793153413,0.0003795962324859906],[-0.0004568146627542312,-0.007663894118586175],[0.0194344801803023,-0.004079305040987546],[0.007801306120127518,0.013907697897332006],[0.006363041676332625,0.0018042826643941646],[0.01304409589700177,-0.02243454073113042],[-0.01884710283429746,-0.014317453080165047],[-0.006641401250760902,-0.00977181817618974],[-0.010378675892028842,-0.004248272266211587],[0.020682827044536632,-0.003649401515568802],[0.005021470975891634,0.0011488475811418405],[0.01534464485571683,0.0002682074521382148],[0.009847617393740741,0.008206382470938524],[-0.0019220607942798413,0.005395490017055077],[-0.008873868847643856,0.001652204735384461],[0.007488622704290648,-0.0023452243584846425],[0.003894530452888975,-0.013741229629916777],[0.009717149794778219,-0.011183679026371083],[0.003298530319004007,-0.013715943792445888],[-0.005038332242740426,0.013503422479760155],[-0.00363646667077094,-0.005209210813225962],[0.010833827148029655,0.009701134114107229],[0.005104363866672543,0.001645956318937372],[-0.002633065634707333,-0.010439326845474847],[-0.0020002945763477093,0.00010514073650791573],[0.013314293269018325,-0.022574142768981908],[0.001572645451244597,-0.012748880105312728],[-0.0003875306948073053,0.020416538005878216],[-0.01928229898952967,0.00468057678817601],[-0.0024487867662415725,0.008347285641570314],[-0.012060395047136237,0.0024536280694833876],[-0.006447076555784466,-0.0008574378409629816],[-0.020629659736638453,0.00359256878405758],[0.009165470854508775,0.010558469720255887],[0.017209525933806535,-0.015882796099776993],[-0.0026577440943481266,0.004954774867738594],[-0.004287768136461348,-0.008076574914151542],[-0.009278907181502604,0.013479296346677511],[-0.00688336184687954,0.0015735706153529247],[-0.011711151657395578,-0.015193691216762735],[0.007149800773195719,-0.011744158137335921],[0.013298202809348241,-0.016954762317454745],[0.0016221328106649701,-0.004443906921508157],[-0.008824451025269898,0.004837014578162895],[4.093775417657536e-05,0.0031104164590310505],[0.0042111916751670034,-0.005319487236777408],[-0.008358346139914232,-0.0017911336774339205],[-0.007356292246501394,0.0018318385964296994],[-0.0178356823051838,-0.003364765844124998],[-0.006550388717328587,-0.005447564172162557],[-0.008972666039612593,-0.006140523673252686],[0.009947100453806474,-0.0005734983076968802],[-0.010381341364337056,-0.004514204640551263],[0.0016443890780040386,0.006761305557606242],[0.01251153999594565,0.000813390623348575],[-0.004934174577972369,0.004841596296099939],[0.0037139040635747614,-0.009066601859081024],[-0.01558181386028107,2.364695344417387e-05],[-0.014986111521213156,0.013939519927298031],[-0.007556432302758726,-0.007040534908308485],[-0.018854847713990826,0.0004161624866649783],[0.0028771300730390855,-0.013767638328526998],[0.006578236579803998,0.004992763310009162],[-0.011118658159386473,0.0033901540307688855],[-0.012588948019675044,-0.011380196754355084],[0.0012715876301158937,0.003432447007163635],[-0.0014532082036586014,0.011979506089279942],[-0.002635252439282336,0.007139505965426355],[-0.001440566081082582,-0.007472170906543295],[-0.0038619722857353416,-0.003062744111363397],[0.00017775243930056445,-0.014136202375145995],[-0.0005469782345990053,-0.01132657131611522],[-0.009293558918160843,0.008299924186004467],[-0.02743571398160767,0.004705537128192008],[-0.011010094028888041,-0.01953487403148063],[0.0057653277290419455,0.0017143385476301744],[-0.0019002428539997838,0.0014824877752058047],[0.013078108079651745,0.007917159267489968],[0.0026839328618125683,-0.001787884820237382],[0.004050333600861851,-0.01179733219949583],[0.002227150353091341,-0.012920951198754499],[-0.0033064405053309415,0.004596845476933204],[-0.008977207852908196,0.011270931323741129],[0.021396677001242537,0.00041394581707298483],[0.0015213457647786075,-0.0110284207690008],[0.004524595994964608,0.01424105562511006],[0.0012308924441735052,0.0014415865511671075],[-0.010722445302324558,0.0004489250942388357],[0.0013505115252679977,0.005073029353514112],[-0.006618178747652359,-0.023437896662209787],[-0.0013263957143305409,-0.007387787535173066],[-0.015375048720364147,0.002156744444596659],[-0.0076826013463800495,-0.0002885143630546376],[0.009147819354853782,0.003987748229399569],[0.018793986251957023,0.00461563179790377],[-0.0037557430282751545,-0.010381182437974167],[-0.02750161495980637,-0.01917988904969279],[0.02350607756772642,-0.008303348121594063],[0.013088250915832609,-0.017222377396522808],[-0.013015734697004844,0.0028486989575912816],[-0.00788784738048836,0.011364035302088194],[0.010267985037595165,-0.007169967826429813]],[[-0.004455033747453804,0.0006825224567608378],[-0.00044729866616339186,-0.007513159885684968],[0.005019229208976326,-0.0015047015069221262],[-0.020134745573257826,-0.005841812047016269],[-0.0005435386799707855,-0.006256002618227425],[0.004524002861753058,-0.003977507495573305],[-0.0017805915143174348,-0.004839605292923486],[0.011010375747867415,0.0009381763516554315],[0.01616955063027938,0.0008792679453936871],[0.003282493627403254,-0.007935037114409713],[0.014694143587210553,-0.011394638758766716],[-0.003186780352593302,-0.0031727654573117815],[-0.008954349891008356,0.0189256405646682],[-0.009833233569717914,-0.019766648037008862],[-0.002097723775455685,0.01265988434334523],[-0.011505523672793533,0.005061903004415322],[0.0009117886624688486,-0.0016521463774342724],[0.005248988191962082,-0.004612794831255457],[-0.006253584571811313,0.028397287533357473],[0.01328773993477559,0.006088626947144759],[-0.009781499166836833,0.0008710658932351992],[0.007579371615211387,-0.010599777959062426],[-0.004895177645429273,0.0028080203130548976],[-0.012674953968927675,0.005284343524619619],[0.004424375196524473,0.006386186561554601],[0.00779393451121831,-0.011207753070729692],[-0.0015345255185747419,-0.00565622733885812],[-0.009073192142709362,0.001281815549887201],[0.008994633605801067,-0.013591056110754222],[-0.0028974263244127842,0.014665002215011607],[-0.0006160929327475094,0.011286790133936749],[0.004954780929367242,0.003646615722151234],[0.007008667952286426,-0.004999190465323458],[0.008497105670466278,0.006709350050642606],[-0.003444598346084296,0.010486693314781614],[0.003848816120265077,0.0042378983512833136],[-0.005974938915089012,0.005342818370114866],[0.0011237900227365548,0.006955888170341563],[0.008734447030324742,0.0012958925805645954],[0.014882539522618908,0.015633749269203183],[0.007979880297948983,-0.017669365342733685],[-0.005680700840968015,-0.0069838680044251086],[-0.002916860999698247,0.009599026479872687],[-0.0017153806636164303,0.010908738825823414],[0.0023869376134887494,0.003217848165692926],[0.004662535795804112,-0.004590277369972832],[-0.0033322108157376657,0.00809626660218224],[-0.011705870041174477,-0.010780759924298753],[0.005104776896029259,-0.012248809063904647],[0.002385866925966547,-0.002636448117104227],[-0.018159829500586068,-0.0030176567508466458],[-0.016034768682095725,-0.00401609383568848],[-0.006758243623470507,0.0012867932867854843],[0.0052636784422202855,-0.0057765841969915155],[0.015867406834391373,-0.005770042102844954],[0.0025767790932466113,0.001145039201184591],[0.011102069769590618,-0.023352761067431005],[-0.0011560411098394375,-0.0014906290061083322],[-0.014889146832772562,0.010349524704624868],[-0.002157347524851848,0.010946112867074932],[0.002412221889711521,0.014044190037772797],[0.005396649113095807,0.0043477211191949],[-0.008438414525353051,-0.0017075067495900646],[-0.006332672207626515,-0.012338128114084055],[-0.01713849308120441,-0.015927164306551143],[0.0006099695935252763,-0.005200961987190048],[0.00270529976021494,0.0026658519701131594],[0.0012143974197737879,-0.005869277340170063],[0.0021110781854841833,0.0034453832055380902],[-0.005524233278563623,0.008556061159464532],[-0.0072396063710762175,-0.007427378269487809],[-0.009270040191996854,0.002943293934092617],[0.017749275592450497,0.013427020236356509],[0.009947358099284069,0.004066226282598725],[0.004315139905849893,0.012719674713940433],[-0.004059364124207805,0.014779598578308701],[-0.017287993219106956,-0.020780461128697934],[-0.00495578833584613,-0.00956713190039505],[-0.002736676550626858,0.0026181781143423486],[0.010898191181436206,0.006013477581892705],[-0.0012322678113761395,-0.01083132560722527],[0.0128044506575384,0.0036005008462875513],[-0.008068728485269277,0.007217003713067003],[0.011402738834687447,-0.0001685346174871002],[-0.012071679607408336,0.004857932120821116],[0.025412890412999694,-0.0025540376759163024],[-0.012464020246801105,-0.00850532336002094],[0.020041323003324094,0.003976432691950568],[0.006430881940673849,-0.005245576555781446],[0.012192832660929756,-0.009980289391905841],[0.002699714442401845,-0.001536065997333992],[0.010028803590288791,-0.01312042459362406],[-0.032671399060120475,-0.009162505376610628],[0.011246375997564236,0.0008587766609658355],[0.018628574897627197,-0.0053642321698982925],[-0.009880951455889835,0.00733208107984032],[-0.0030241102665886396,0.016489433624024736],[-0.007361911274272817,0.009913008607383339],[-0.012617273586076967,0.009214747691568076],[0.006190175615320568,-0.011828807519765774],[0.0019079902024697211,0.009075939120151347],[0.0018805012332298227,-0.00902470826681981],[0.002846994665262688,-0.006719259894005563],[0.003234932240897822,0.00819254216323649],[0.000938314638629871,-0.004481366749088946],[-0.0015165671887182445,-0.018144709357843236],[0.016381626296436528,-0.0029721409935859013],[-0.014084325405308504,-0.010423020534589818],[0.020851742089553156,-0.0016357213804417889],[0.0015240353451221882,-0.01272160723147029],[0.013519852714486025,-0.003489206870895452],[0.028161585985086147,0.00012772436853034736],[-0.01304569388811692,0.008097960620400949],[-0.0010960772084418016,0.0006227245344179568],[0.020793892916321315,0.003980201014370933],[-0.012714816754741301,-0.000336203884545589],[-0.0006029963360320504,0.007997051301453457],[-0.011527684665888915,-0.009142189586776385],[0.001081401618929975,0.0035755878404218574],[-0.0027604288263152746,5.789564087679079e-05],[-0.016873209181151906,-0.020527719227422525],[0.01141536870863511,0.0050648721888061354],[0.0005897117427693431,0.0032754674239325347],[0.0022234878885082927,0.012166764901054538],[0.006515244643954308,-0.00995586319890494],[0.009130419701595087,0.003189172778141474],[-0.004763406805393208,0.012220172908214985],[-0.011339092672070753,0.007626687983779677],[0.012482393411399093,0.018325222873321535],[0.0026749548664849734,-0.0004000659755417342],[0.0037549698929357895,-0.008182781372173981],[0.010204578361131145,-0.005911800328392981],[-0.00341116801514162,0.001174734014161999],[-0.00043681472579113053,0.03044270298192188],[0.0031496779553103547,-0.0012914670862560985],[-0.0097032867362933,-0.010710067751496896],[-0.004434545911453301,0.009252567573147954],[0.019404375688224597,-0.00514388899061905],[-0.00034943880643058126,-0.013066135283228529],[-0.0042093609798965455,-0.009065868564141126],[-0.005397995277853344,0.014240454922400697],[-0.007071116109593933,-0.005908255333573644],[-0.0013340605400037437,0.011142747753893513],[-0.0009862650470060655,-0.01702912312963536]],[[-0.000574727099889455,-0.004390491290316902],[0.0035347524720836395,0.010396531763105784],[-0.014949091100011412,0.0156973751066178],[-0.018679728616252632,-0.005953229420108202],[-0.0017838252326534154,0.003049868128507639],[-0.018537520614880246,-0.004765729071235753],[-0.005400266282078232,0.02463227472676931],[-0.016538060587613652,-0.0010994373003462917],[-0.003485733309877763,-0.0006957728566561315],[-0.01108989284701258,-0.004368783101882475],[0.021003368528401244,0.0007427561407094114],[-0.0006535943374287329,0.004516566899475303],[0.0056131719179896965,0.0003688895224809155],[-0.01906156988815334,0.012875112178544323],[0.013845919801340614,0.0015683033401320246],[-0.009628498752572743,-0.002629184187898798],[-0.01160943616140016,0.0068076034980890645],[-0.024177989498000527,-0.006726078268423902],[-0.007703416919243551,0.00920162083218753],[-0.009156811055772048,-0.006816295257171751],[0.004470114316159609,0.012033351971150241],[0.019241036559176746,-0.0021594761368700917],[-0.005639854268519514,-0.015828733783173673],[-0.027634235968132165,-0.006663904775472267],[-0.0047166011338608945,-0.0004917374999362786],[-0.02191443247822249,-0.00425608909503099],[0.0035308762184258886,0.008968746412312928],[0.004690216916466976,0.00961779019675068],[-0.0016533996322061306,0.0040505344527733056],[0.007607887665720357,-0.012820395148073913],[0.003961037245978367,0.02360081854148282],[0.015292334066678863,0.003375570988227356],[0.013354967599589972,-0.0005973473240379621],[-0.0031798898762053253,-0.014545673425284804],[0.002940204408703352,-0.002348131335868689],[0.00760559975968751,0.01234693408499398],[0.011468339250811315,-0.004903470773659072],[0.00813619326514304,0.009483982098685792],[0.008353430562791302,-0.00905717841286888],[0.005690727650173229,-0.027578300442150046],[0.0022135646813839995,0.0028975515000141247],[0.0070455683317277055,0.0018476716029316002],[-0.017546441746662145,-0.019878820246709086],[-0.004646174258188819,0.005283249656190871],[-0.005487223776171182,0.010226163418957698],[0.01010482617494703,0.005628055400517933],[0.008008404971558525,-0.0009387951246153665],[0.007826973951756524,-0.004936442390555976],[0.014969789076845541,0.013363031666141495],[-0.00036171530342719903,-0.008711905669671758],[-0.00597906562112986,0.0025873499070579427],[-0.012085346756473343,0.003735016594033177],[-0.008809740108655739,0.00021938133484243312],[0.0008111481555594616,0.017909702110240455],[0.006989525939030434,0.0062617000340519135],[0.0003646610513369142,0.010436354669653909],[-0.007133891442091727,-0.0014287181198989305],[0.009984161209906415,0.02361274796043858],[0.002169973804435458,0.005413273128861349],[-0.012121202193689645,0.0037348883085631607],[-0.011504047142280096,0.017700539862696985],[0.009164364790534067,0.002685353356757749],[0.0001063799692047375,-0.012014981524620164],[0.01634127209911007,0.001588610677245453],[0.014514571817512556,0.0013814284452536162],[0.009516810996531169,-0.0016532724559948004],[0.0005653204457439229,-0.008721839203106176],[0.009861030978998639,-0.0002980327375390311],[0.003260963204070032,-0.0023229941892067463],[0.023334115478027138,0.010095847519083889],[-0.008835083313509764,0.0013820933289335393],[-0.004488911196660128,-0.009301040978074682],[0.004870151423756389,-0.0195649406060297],[0.0059144488122011545,-0.014428944588131215],[0.007360370753072683,-0.0018578682099834505],[0.017964282716427107,0.006790017884685279],[0.010494644713606506,0.0014596481518823476],[0.013538946672393639,-0.010196506382258783],[-0.008203222890956834,-0.002680940651412628],[-0.003900282657339248,-0.00198697003322471],[-0.001216995450798446,-0.00477645909844622],[-0.0008545186360482809,-0.0006761810031213338],[0.012616620219257343,0.020341125408496405],[-0.009624333485851004,-0.012079363446373313],[0.010432247078235644,0.0011515362069404326],[0.006243140288670158,0.00634666321673647],[0.0004423899061340055,0.0003135880058322283],[-0.014312055733365808,-0.005006538119744655],[0.012757488218472505,-0.002720406346004061],[-0.01058616660452084,-0.002206142781021812],[-0.012004994434171558,-0.015294991827980416],[0.011135488387092682,-0.009644038666369058],[0.004249697260145789,-0.02130055031560908],[0.011779652769528345,0.010123777204061178],[0.021403154577057455,0.0004574281353388601],[-0.0005302383887670827,-0.01075511110704244],[0.008285857360288773,-0.004454844086239245],[-0.019330538830987558,-0.002455236546777751],[0.006694856093823872,0.004229311302355569],[0.0065673817293794255,-0.002239463118461707],[0.0025623335074158775,-0.0029439242249263142],[-0.0008049963428905331,0.009133599413529432],[0.0024862338025941504,-0.005472891366132202],[0.0033664160560231073,0.009533696158783047],[-0.011083567683585508,-0.0059701813267347414],[0.002614037467920918,-0.013384218891766357],[0.0032477095469415724,0.004819900998036159],[-0.001944855230979152,-0.007292125629838408],[-0.0006075435347802406,-0.00202786706600931],[-0.026920219217440953,-0.0025233455184130163],[-0.010848907168120633,0.0019801071599427314],[0.003244647490793041,0.006885882614654772],[-0.0037815243307722647,0.003937000675914281],[-0.0004900255242169227,-3.483065550840864e-05],[-0.008608452213455325,0.01340367226070648],[-9.398536824789918e-05,0.01859477507035714],[-0.006704784494262692,-0.0007111921860957693],[0.0042942222829226735,0.006095563016197125],[-0.002993276889922115,0.013555014222658555],[0.002354018887912521,0.02170625736288039],[0.002531483644382652,-0.009880824414410148],[-0.003937390482482258,-0.0017112538847163336],[0.02400396276180515,-0.006205568578954108],[-0.023601133309735733,0.005473756451273129],[0.02240916949412448,-0.010039652911824383],[-0.006987136328958161,0.008421214576193815],[0.0006088249993345903,0.008466040206988577],[7.517553766291356e-05,0.0011394467513842737],[-0.007073176375268189,0.0037705457680929297],[0.0022310135157863746,0.013582867621985998],[0.013916798615446157,0.014042554299632054],[0.0020067448715650107,-0.0043288784078543635],[0.00944232289099807,0.003714781928123049],[-0.021059642675114624,-0.009582854246571161],[0.010152865634707537,-0.00849487250439862],[-0.0003953570159048283,0.01315844988807284],[4.5569641053346986e-05,0.006992326269135948],[0.00035132008422925965,0.0057375106811048135],[0.00633842359279852,0.011877009254160511],[0.02230437896792988,-0.0026523374782043358],[0.007439213794710302,0.0035158439438934],[-0.0037759874026373117,0.006698103331305915],[-0.008846815541510357,-0.014499656124163929],[-0.0014034830195875708,0.0026027572404557766]],[[0.004315956453875203,-0.0018110598838334984],[-0.00807821133179922,0.02070044891665069],[-0.0047160412133034285,0.010852005188581947],[0.010359484969206825,-0.0046247071475882355],[0.0024627076818565536,0.0043691079726703675],[-0.008527670245064912,0.005797191815796952],[-0.008900470128724402,0.007606483079980063],[0.0025939350430986045,-0.006146147945482343],[0.0023291178402584313,0.03522000531977514],[-0.005181626728546074,-0.01815542428925605],[-0.004355465425221294,-0.0006084074139902908],[0.015657788497088206,0.009141082999402741],[-0.0014800443763396262,0.013488108229938567],[-0.004371564723174101,-0.004551427117660051],[0.006330718685646306,-0.012109132491414435],[0.005857957858737708,0.0042980862696671],[-0.006872415402431185,-0.00931540709689327],[-0.006918289318760557,0.015186012428190676],[0.009553953306544037,0.012995947878006016],[-0.009003536910278978,0.0020153582694900324],[0.017457901183093375,-0.0043807441821729996],[0.006698653674638173,-0.008836960116532],[0.002853235088211589,-0.006007886515836066],[-0.0003323909681990406,-0.0010561961911759832],[0.0016569531077793667,0.007646256810382321],[-0.009334833112406985,0.010652750283136475],[0.0012020159434547226,-0.012065032682813597],[-0.012636334813978628,-0.00038885263920750515],[0.002017826860607259,-0.0023737080043917617],[0.02003516455178912,-0.016665555203525195],[-0.021945059822582734,0.0032065668730881084],[-0.008630670639647972,0.009567346982230121],[-0.0016043908128549023,0.00665656891386264],[0.010157771081878507,-0.01654612471567655],[0.009727835083940008,-0.0025890546987788424],[0.009508952449809717,-0.011911206347194874],[0.006839504621373654,0.021255951454362314],[0.008629240803921212,0.012397543063550565],[0.014669758882399554,-0.009344729033101287],[-0.00811686331651722,-0.010922165402448194],[0.003945953186016185,0.0028824259045743617],[-0.004944252797301855,0.006629146025032902],[0.004869336943103302,0.007158188232700079],[-0.006673572778796672,0.00441928273524291],[-0.010484177866893167,0.025277985138545206],[-0.010644810224742937,0.009998751001746],[0.015136031189439203,0.004160179021147363],[-0.0002968537680001303,0.0024114220541929994],[-0.000525613269505173,-0.0178050533743491],[-0.0024082154958801603,-0.00763543291794861],[4.4418011547690356e-05,0.0023509139013490185],[-0.00919472888960293,0.005592029230048481],[0.013357214008291143,0.0017271840277909907],[-0.01473081168232378,0.0025953649198165118],[-0.022794234232996435,0.0002655081827765525],[0.004177487228943595,0.00816768039825223],[-0.0013999445182866957,0.003912292962802951],[0.009495351012615488,0.0021671164858163196],[0.0064601178502322115,0.002363445045622302],[-0.009300417368481194,0.0030108938441529235],[-0.014189173706432202,0.00384212714480913],[0.008322371247704298,0.004909937496134449],[-0.024496920776141577,0.009147477745769985],[0.007529810061977141,-0.01619109770116539],[-0.0049729966404964705,-0.005779276191287186],[0.005188269310026907,0.00996270164268592],[-0.024859394574734843,0.003307894571622499],[0.01181406738227397,-0.010737466087213196],[-0.006157433302576463,0.00453218306765426],[0.010127634780222562,0.01514419018270802],[-0.007235740224501295,-0.005264238590898806],[0.01421905045394649,-0.004222123149935788],[-0.006024364419244168,0.011446456918802748],[-0.01686226708892309,0.010929629966609683],[-0.011763627691824213,-0.0006561591214343586],[0.013365374104405827,0.011622759907146635],[0.01128666881132999,0.010192091397224236],[-0.010755829544039855,-0.012658075025724498],[0.004363006783644848,0.0033213241320538336],[-0.00026622707356913425,-0.005650154164226449],[0.00045299280643716763,0.0031405427464205795],[-0.010881124244685876,-0.017239796343328197],[-0.0008086260301585905,0.0034031771229254895],[0.003990969638960363,0.02134694680652915],[-0.0031765205819432965,-0.009541598328387916],[0.012390153457217574,-0.016097443787097848],[0.0026661080456390424,-0.0017653555849682745],[0.007697865229294666,-0.0004268916081934999],[0.004730382971947617,-0.009260046419208433],[-0.004224200713676087,-0.01619199721109619],[0.002224363660455928,0.004098549459832603],[-0.004897018568521713,-0.0030881550913716338],[0.031304426735612415,0.001637147098723721],[-0.0125510277165729,0.0006275440322210044],[-0.008709798206409092,-0.022654362166811017],[0.005998248036177683,0.008897763206162618],[0.008946346729646839,0.012446424517609944],[-0.0061329627743203705,-0.004796833674646406],[-0.007281061724146412,-0.012017729120804663],[0.0005632412215447546,-0.0018817015739749103],[0.008738975100246576,-0.003379533432687656],[0.014238190501898573,0.010307822617267],[0.00983817460281594,0.015656041883011375],[-0.006307310945469106,0.005216598874751734],[0.0021667570467810158,0.0052037581476039535],[-0.014672857638688792,-0.008013815489023704],[-0.0036566419026259145,-0.0019304467851843769],[0.006341023308859358,-0.0036337056702475277],[0.009501796313912098,-0.006065509133510931],[-0.014912793374736603,-0.01274559004690659],[0.01410140223954582,0.0008970770545298583],[-0.0013152998442376158,-0.014234303802253032],[0.00926242273412128,-0.0007810500459612481],[0.003213228871983484,-0.008219758463932024],[-0.00392489122538524,0.007000960634949866],[-0.008969865791617071,-0.01133125883483702],[0.013772594223121893,0.0027013167480846203],[0.00011961833002636826,-0.020149178770533904],[-0.02034393465953016,0.002183341227614986],[-0.0005665488353781727,0.020186465344548408],[0.009602129540486223,0.005719709262697251],[-0.00983487831839041,0.0002686936808737235],[-0.010896292983684231,0.015902785474605392],[-0.004467674670506121,-0.006853494681469606],[0.0073751432527076055,0.00020915135437523844],[-0.0017417962019798676,-0.0036708223678650893],[0.015350373085537435,0.0026924037401960662],[-0.022769754733276977,0.0011547244789015536],[0.0033472542689010694,0.004238029584579201],[-0.0006067972332253528,-0.0014085014030393],[-0.013942222520306533,-0.0026271701107443745],[-0.004594465213141937,0.011482554953821101],[-0.004361162862642412,0.01204598778109925],[0.002279101469825918,-0.0007311893726200141],[-0.00798848642262464,-0.0011253831843283373],[0.0012924628603752774,0.005940144281190957],[-0.01712968083954796,-0.019711497744297007],[0.003800993967247883,0.01581982389594929],[-0.026851482916248653,0.0006750812834810224],[0.002615472088885396,0.007696663920362058],[-0.002033996059132828,-0.006758595127974794],[-0.0002165896693739136,0.017716678794276474],[-0.0020535483793361156,0.005499173848467292],[-0.006791416773804771,-0.005468853704090124]],[[-0.007484402631028689,0.013320648805528553],[0.0037981624770339847,-0.029924030126693556],[0.01877616294499777,-0.00015919613439388882],[4.938968455472665e-05,-0.015870392761765884],[-0.0019064524916068354,0.001772051657130728],[0.01322896781446807,0.007154225264027805],[-0.012809491794879897,0.0029816190006537596],[-0.010238065785036832,0.011660317266821854],[0.012464692412813982,-0.0037760330766146086],[0.0038239855279624847,-0.0032707229468677073],[5.874187372041043e-05,-0.0005633867709095462],[-0.009368603209116507,-0.006226414260460804],[0.004192545354423028,-0.020660743203720383],[0.0016653389696451595,0.00827971188002122],[-0.014497820905123896,0.020478481849537152],[0.008002507285670143,-0.019627773377758638],[-0.0028521478448532518,-0.003228128380702423],[0.002788468727830436,-0.028310824495393662],[0.01883163792374189,0.006263494818768144],[0.014660217143053345,-0.000736702862779221],[0.001284928664007597,0.013015288534565359],[0.007365577702103108,0.001119015610842905],[0.00423627492550961,-0.013119439804436389],[0.0009754085030301168,-0.004902921226953731],[0.012260190570883761,-0.005743057489335002],[0.012566414187198232,0.007188103085856132],[-0.002537068758848093,-0.007357206616551685],[0.0030998297808565523,-0.00951103024201982],[-0.004889297670378601,0.01687154905928894],[-0.008794597023470355,-0.009779877486356224],[-0.013670501485483471,0.004843221353262094],[-0.0051091168877343595,-0.0039824693868442075],[0.015005392008699079,0.03189697712426335],[0.0087573659288803,-0.02203339642120105],[-0.003130267859192935,-0.004078114196176033],[0.011370796987767747,0.01654513866588967],[-0.016395282409746244,0.0053947660877925845],[-0.005305446120010264,-0.016031383302201937],[-0.0007920474924546974,0.013434010743064616],[-0.014062431036979026,-0.0070251665670201125],[-0.009568714591296927,-0.006689669741670396],[0.0038479566868464803,-0.015778729418199133],[0.0046866375425649925,0.016086012989933854],[0.0023110005149219325,-0.006935055851440584],[-0.004347933402898778,-0.0003997697921028862],[-0.008439428484179647,-0.009066377423299063],[0.008031107362956475,0.0012047694239427633],[-0.008005466233967026,0.004972877538223776],[-0.0007225214411701825,-0.0077417542827506415],[-0.012233870377888,-0.016138104703366324],[0.0016281429047666465,0.007676164477160101],[-0.0035100711938979073,0.005753545339093556],[0.0029499210084934398,-0.003092594733478991],[-0.001016333184922754,-0.007285976024698535],[0.007692745248616498,-0.004922820135615975],[0.003099292881069168,0.002111390864628894],[0.0012532823499533058,-0.014338393512219924],[-0.000508270859954656,-0.00823660224794357],[-0.01477116286253188,-0.0005667298874452598],[-0.015729472835686337,0.004137955766400382],[-0.009846652736569142,-0.001180772104537456],[0.005830601813303566,-0.002383349386683613],[0.006967538613276886,0.005862593461623584],[0.00530379954558058,-0.0020527503320955254],[-0.0007902503130574251,-0.01147975194758531],[0.0028804132911031772,0.0018214324926037755],[-0.0022682497818839282,-0.00889634841724088],[0.009960817053132117,-0.011301228370060335],[-0.007127664846016058,-0.009250908282502673],[0.006461297466364669,0.013041463629417981],[0.01789400748630275,-0.009269112222992607],[0.010720267197146197,-0.0018449476356588675],[0.005516508685202627,0.0115166333328551],[0.005687908237817065,-0.005028048699970753],[0.0036567245528592424,-0.006010722812677919],[-0.011038738817188806,0.006236158915033211],[0.007196441070949915,0.0060622282701206275],[-0.007174120682622031,-0.001289741350768323],[-0.0029000407894687946,0.013178072563797548],[0.008662769255512268,0.0077844048541653044],[-0.022146998252659214,0.016073043643068857],[0.014954747635492363,0.01674160951911661],[-0.011441773075374456,0.009331417406189417],[-0.014318451740917322,-0.002104289412694679],[-0.008908923448157125,0.018557038339077025],[-0.00198359053372331,-0.0022589618718376354],[-0.003000410222327456,-0.02295897925167859],[0.011822670063162583,0.004761239602062262],[-0.006186385411691299,-0.006460659455052737],[0.004286181156677241,-0.00037314334210863687],[0.007299912038809083,-0.0003415143736407274],[-0.00033619619210299516,0.01805092541774237],[0.00038332070702824626,-0.007873197424335138],[-0.019082247197161818,-0.002733694245541273],[0.000765639873674323,0.0004197465497959951],[0.024155522331943447,-0.01016185327300456],[0.007403723342363134,-0.017725626361561823],[-0.00927359900502379,-0.0026258145620209838],[-0.013148547622559657,0.014465199707996597],[-0.007048404570036665,-0.000345924811841182],[-0.004547392509639026,0.003378030436332739],[0.0234040124486298,0.0025311588174853263],[-0.005944756959442371,-0.02569646542025237],[-0.0060437381168840665,-0.009073959228095205],[0.010056691927763789,-0.013279283758905372],[0.006483346699857733,0.0048191954423039635],[-0.01670752441020104,0.0006485900687230007],[-0.009971962596865851,0.008369809635431318],[6.0305377133479366e-05,-0.01411143459762115],[-0.004677369962115635,-0.002907326401147584],[-0.014773316011079183,-0.0016938150349355779],[-0.011575225509864664,0.009329100162355827],[-0.005445431195042302,0.0011725665071211939],[0.01628752425679703,0.015303348294759428],[0.005427588734157539,-0.0064093081778115795],[0.0049680199800259586,0.013615745499411528],[-0.006739152980402305,-0.002871544370789896],[-0.004815100347570943,0.002916387475802309],[-0.002015381499297474,-0.004360170514634885],[0.001405372259807686,0.005424990628385175],[0.01739810260684133,-0.005714586554732494],[0.018592314839959163,0.0019614088506740585],[-0.0045181038599609825,-0.003220333839270566],[-0.003819682877917402,-0.001831886281090356],[-0.0013177896317473695,-0.005954406273758286],[-0.0005272777355890333,0.0161653882913983],[0.00573758279241515,0.007644381408609649],[0.005235269417613114,-0.00906157078478979],[0.006468649168270218,0.005758708051305685],[-0.00962707905182878,0.002378867454274641],[-0.019160233808384632,-0.0028585235085494833],[0.0051585936339733855,-0.005605400398283317],[0.01961792907529378,0.006462325730252406],[0.005492413354208979,-0.004931135744169975],[0.02625306240588687,0.006064829135861635],[0.01083444662437976,-0.00428408601497764],[-0.01624983410636562,-0.003223431204665516],[-0.005995926920677439,-0.021867905599077427],[-0.008497617886969391,-0.012011788460277284],[0.007775006617802799,0.016470081730683546],[-0.003013586451186684,0.005064627967224591],[0.019124694834925404,-0.006126551535522125],[-0.0008734155363858782,-0.024212318625586936],[0.0004300850554331368,-0.005993402176201667]],[[-0.00602672970217918,0.00044234159609729334],[-0.0063076083158947124,0.01108057778947085],[-0.0005001942180059464,-0.008018323271833062],[-0.010977334953002092,0.00038610166970324275],[0.009306338533566088,-0.007298490022324745],[0.008038774238198513,0.0124669294368892],[0.020695564499034102,0.01939265605925915],[-0.0045167339141765715,0.0004375803737875729],[0.007177664760801836,-0.005868273998410532],[-0.014909778676855057,-0.003108563257319329],[-0.014462623748579831,0.0005571127433780928],[0.008848072394454032,-0.013759453809452437],[0.0012425589342873774,0.020234354837217364],[-0.011028255664578924,0.01900456673609217],[-0.0005284552835190025,0.012400171649862292],[-0.0019386094973504295,-0.014987658267737817],[-0.00953773318323767,0.014607752503905932],[0.0025266667817715593,0.016123793347747304],[-0.008664058252899036,0.014720792253068013],[0.008082784341152437,0.00034505221620851636],[-0.012210908280576874,-0.007752325704529655],[-0.004976003267659935,0.005901050908365241],[0.00521971416318576,0.0058602056914207595],[0.013457387959375507,0.001980008179429485],[0.013958210197518884,-0.004036456699527207],[-0.006360763472860039,0.008864374787246871],[-0.0003730226512074858,0.008112731315670568],[-0.0029487330515585008,0.0073464715879506415],[-0.004017199504828905,-0.01106812535103076],[-0.008272982134131229,0.013443839549439528],[-0.0066631214664270005,0.009377745951573669],[-0.00099600344117886,-0.012237888067206663],[-0.01996866224530154,0.01802578743509863],[0.0042996235800205765,0.01372375222114581],[0.010266954320700286,0.028425690369775252],[-0.005049080949578924,0.011599600806691101],[0.0002091949349205752,0.00621037334960332],[0.010872828355390189,-0.006210804108964395],[0.0046520115171102515,0.011722740475228949],[-0.017257255570218264,-0.0036666243843866673],[0.0017050242023476908,0.010014942292072195],[-0.0026247577144610885,-0.006047492547736339],[0.023600295929995102,0.023448099553936348],[-0.0013557615960073344,-0.006830582695330169],[0.007897604293181974,-0.009366834894248019],[-0.005998534607843563,-0.01858805308722868],[0.009626418299026307,0.004739749679042352],[-0.003995238583400997,0.0015319610171459592],[0.01729596249967197,0.011413030645764575],[0.0009021788348766945,-0.0006787819478779598],[0.019520294213142955,-0.015348956016549406],[-0.01372823990995234,-0.009160756010025585],[-0.005363700461097369,0.0020983912582099445],[-0.0020337298257084523,-0.004797079326671992],[0.006087056006376695,-0.010339773886650333],[-0.008100306691923293,0.0007564641191319798],[-0.012467587244052506,-0.012283667765588003],[-0.003996714509192014,7.208158114213842e-05],[-0.0025766384258071565,0.01105712856207717],[0.003144493647932133,0.008444011823225819],[0.020630744636008263,0.0046534385816913515],[-0.022629275019888068,-0.014987417408247865],[-0.0028692209290038053,-0.015938191388934222],[-0.010940848337574676,0.010347843089905414],[0.007142693626085276,5.006377068743546e-05],[-0.015928953298369096,0.0180453886569894],[0.03137793775223932,0.001145571201608917],[0.0029459018822071575,-0.01600228484933957],[-0.0167821506912108,0.012290478756633675],[-0.003199853898873721,0.024820945059064438],[-0.014599649944570522,-0.0007460861897248187],[0.002841479710251148,-0.003197119227397504],[-0.0033517631456141577,0.0073559811155623845],[0.016696909797511365,0.004550870310527462],[0.013292987135530105,0.004118863001607656],[0.001642466013805466,0.010841656161620056],[-0.013961010380577414,0.007062604659960975],[0.006776178217953068,-0.011049725443408567],[-0.009427004710679811,0.013822008030119839],[-0.019435092780034746,0.003191997476423741],[-0.007990675478028212,-0.004081344294152263],[0.0036853946884307363,-0.014127006316445664],[0.0032131639811664304,0.027416259380153754],[0.009182061491609744,0.010584499941235401],[-0.016901875244389884,-0.009636856343922813],[0.0063352152429630645,-0.007407373873318803],[0.00800769573367289,-0.0033910536119767442],[-0.00681186089335497,0.016939138613779887],[-0.00808719990182621,-0.00641497444167526],[-0.005453212194878961,0.002122516442535918],[0.0022019597026053978,-0.0038010734202990246],[0.01752111094774083,0.0038998090702050247],[0.01665136897565802,-0.002530527108933571],[0.00945867965757149,-0.010308874450879814],[0.003609195376680728,0.007432777060080108],[-0.0012991780699495989,0.007048561890552067],[-0.030018972255778965,-0.01034680039888008],[3.443716225121204e-05,0.017356807912467947],[0.003850559826914478,0.007593518460628332],[-0.024903784400407122,-0.0017975965588807878],[0.001970382814558549,-0.005400933441352897],[-0.007059787286696265,0.001180234840409796],[0.0009585252478338956,0.0013664188486289834],[0.01771284249408633,-0.021261979081339564],[0.001384473173548206,-0.017302755353490216],[0.014608864852053196,-0.006504819548174317],[-0.011143024292928329,0.006951066996699768],[0.019478242497404017,-0.0025032646467929983],[0.0008249125501554881,0.011598583282816897],[-0.011705120208460472,-0.008922585386271283],[-0.0036364865674762318,-0.008292410019168056],[-0.0031661947265429783,0.02243939536236276],[0.004536483106488988,-0.010275841181143658],[0.0033943883648988858,0.00033867496422186887],[0.0022099864433670667,0.0025591508712295916],[0.0005428140228376162,-0.005392457225062937],[0.00651460423455734,0.01060622920934913],[-0.019749866341324272,0.0029913180362588373],[-0.00967446533601949,-0.015266095237416802],[-0.00736441871648716,-0.012175040393064735],[0.002254910329385397,0.0021375999507451584],[-0.009235229793997544,0.018385692268956966],[0.007251106057268274,-0.008772932496044609],[-0.010652942558740245,0.00035541062191748714],[-0.005592531320009972,-0.00031469028552257483],[0.0018426737097227534,7.02306451190779e-05],[-0.008391628667921397,0.008778011189379532],[-0.005680051088306871,-0.020346490942563553],[-0.008104658603130957,0.012264626691326407],[0.0005458981230087926,0.004538859628750518],[-0.014710585781063247,-0.012545216021255592],[-0.008624622762728927,0.005213001081009932],[0.0006304265683311811,-0.0008259295758995882],[-0.017584723882175263,-0.013998555430044454],[-0.009406813733500422,0.004838282965947593],[0.0015792407152467954,-0.01692537493667052],[0.0075759763300492266,0.00608468324418713],[-0.006075849339127228,0.005070156717519837],[0.008317974547689483,-0.005887733120358888],[0.0018281773350535139,-0.005532096440015315],[0.006120058867937242,-0.00764355317866975],[0.001898505639109433,0.007097732890859573],[-0.00936470818022743,-0.014951824321700207],[-0.0032644144183200966,-0.0023833911606903676]],[[0.004419826866986206,0.006704957039060175],[-0.009944698651059234,-0.0023725767845810225],[-0.0039481744386213845,0.00302710471003887],[0.00540518816898641,0.005153909743960305],[0.00022689009915889409,-0.0013979013409008716],[-0.004999121516290499,-0.01445929456524329],[0.01454221427159743,-0.004719061184296163],[0.009055482050360289,-0.006153495007138153],[0.01588919427248347,0.0020529509546279644],[0.005804489087945411,-0.0038029099427207835],[-0.00969448847367108,0.0010903449533270146],[0.012374003115005363,-0.00951810140469395],[-0.015603883154232029,-0.0013280486442432187],[-0.002038633793748917,0.00407808134617013],[-0.006635430700315489,-0.005514976021599432],[0.010720581062348331,0.006732801291893124],[-0.0013914881521983641,0.011598093146491156],[-0.0017862906796599512,0.010716597462415395],[0.003687999949639637,-0.004435593968596473],[0.014222230186435278,-0.001202624468197245],[-0.014054008078435128,-0.009282354069797093],[0.0014230119831018092,-0.002186688468898851],[0.0009833059769753225,0.0017689710902571805],[0.010578885929787568,0.008009073854665436],[0.015461191048028218,0.0021404454948251526],[0.004012443511289572,0.006721180360500201],[0.00010262508985240312,0.003468486796588316],[0.021770540263755262,0.00570087390391172],[-0.003188289897869532,-0.007216406715101026],[-0.013444013424886906,-0.01739019701722174],[0.008461661412901807,-0.0073789406516201516],[0.001310163472524506,-0.0031335208707928873],[-0.006103575790449079,0.010180074323956905],[-0.005657035633911692,-0.006371531909898318],[-0.0031898689619846493,9.160757909834095e-06],[-0.00526674169797265,0.0013615759056056155],[0.015465317251872142,-0.003114932333472318],[-0.003481210109330956,-0.011946232187899638],[0.0003712812877990721,0.0044167157259988234],[0.00569300799137538,0.004017525629675915],[0.020911621356120198,0.0178363286868535],[0.0023386234393630895,-0.014474506765783239],[-0.008360044176374192,-0.01376135759483629],[-0.0020242167645967667,-0.003083083845620431],[-0.005492602054480509,0.005417917386481992],[-0.001507469007837854,0.008103228429227874],[0.024362139890086544,0.004874857828651117],[0.002039952175200405,0.006550482796180511],[0.0056916177310454025,-0.019956615722852476],[-0.008203393759253249,0.00173384753885327],[-0.010556399592696997,-0.01921331426670335],[0.0024262804926465814,-0.013935828147812804],[0.005560991059369987,-0.01023150475706899],[-0.0013396517309960747,-0.009902700213351509],[0.004819349760722324,-0.014122810342449915],[-0.003807375898694605,-0.002377795259046145],[-0.0077105437863279926,0.0080289420350589],[-0.016041166885283314,-0.0007410689673425044],[-0.02211443910512153,-0.0011192475791713965],[-0.00949320818901451,-0.006099060009016239],[0.01729046159316129,-0.002947117870791644],[-0.015845124838521053,-0.0029893327508594874],[0.02463723537150316,0.0038676490661957857],[0.012277438252867636,-0.0018845298140803598],[-0.004143140811656301,-0.002713137336888934],[-0.025739575702226705,-0.0032989431519715195],[0.006485417847537325,-0.012894182869544784],[-0.0063616070074873085,0.0024814700385134116],[-0.011591439938298571,-0.0031099271756223415],[-0.010762807070312855,0.007028791986504095],[-0.021096412757275272,-0.0007014354456279224],[-0.01154392363543375,0.021650836433756614],[0.0063190346650144075,0.0015192823428027739],[-0.02062778735051664,0.00041915659069890056],[0.00889596178749771,-0.012946312826906744],[0.0009505440982263721,0.0006331877506415458],[-0.022371786966092093,-0.0063281441576329665],[0.007178803396665153,0.0051786301285623336],[-0.0077032634238266146,-0.00940231984472178],[-0.008379051816255315,0.00399148626620424],[-0.010445639428041092,0.014077382119507898],[-0.011292484995493155,-0.0016610296785899547],[0.019233645068053737,-0.017009943624543975],[0.0032331130534684034,0.009391608967814671],[0.0013715485369575056,0.0012851342800696715],[0.0008438067352048583,-0.003584093252132776],[-0.005015650632371804,0.006678007244091578],[0.013621273743678802,-0.013622078924030008],[-0.0015631671254708942,-0.0029611084808384364],[-0.002951085053234361,0.0007457394001392719],[0.011223019207783215,-0.006613566965026024],[0.00735707762270879,0.019219519424549678],[0.00037089446265410283,0.008546840759261548],[-0.009841309844982321,-0.022212814025198438],[0.010939593446799335,-0.0049258238731803],[-0.0026620160088117583,0.0028319893615181228],[0.008830509393117953,0.00021536036923419102],[0.002429087148463864,0.01797092070253695],[0.0005851987370428814,0.015283382014180127],[0.021169717978436902,0.010577017216190145],[0.008472788140307878,0.008133826982198526],[-0.000318069592194587,0.0026206285575654338],[-0.0009957645660396998,-0.0003456511298290184],[0.0007714496261185429,-0.007224335321436525],[0.005789853406939242,0.0010512623388013041],[0.001518694820144349,0.013270784133311534],[-0.009721463628914073,-0.006211401249960089],[-0.005645998268299,-0.017336182295737194],[-0.0011562053043247598,-0.007953912891675803],[0.0167499999783949,0.008982899592368414],[0.01635363036184746,-0.0018032552570484716],[0.008557579884362764,0.016144710635822356],[-0.001632455346691899,0.010347105888011332],[-0.0002582497309195097,-0.0029214037997804445],[0.017203745278682032,-0.020752474179572905],[0.0016909917724729328,0.006965468849212551],[-0.01672005019153324,-0.009874749768588055],[-0.0067018061969556265,0.00021961813196609515],[-0.004434057296735516,-0.010608691419898623],[0.02031892342689831,-0.003126180365661984],[-0.006406773176780619,-0.00237231701587033],[-0.008209664152616477,0.005394413887988132],[-0.0033842536407613297,0.00938326537237458],[-0.003786558122322926,0.006781136241398128],[0.0016266000700413642,0.006358247760637165],[-6.041752022869313e-05,0.00812716273022349],[0.0022632478723299617,-0.005814320865967893],[-0.02107691867294939,0.012107422506938893],[-0.00021895820998099592,-0.00852876567766275],[-0.001014721483269526,-0.0028888673733629524],[0.0007974152186447311,0.00678237379996127],[0.0056439061755439515,-0.007768205295008494],[-0.01707257308049506,-0.01026586790939056],[0.0010145410307453202,-0.009636653574659107],[0.009114096366781415,-0.0020969262486269244],[0.007855722440757627,0.0012331537276667357],[-0.02024303841145123,-0.01849999015115733],[-0.008881305462083561,-0.010784909496877314],[0.008153887431708473,0.00015739314417417922],[-0.01491087565741536,0.002038216362717492],[-0.01700717822733665,-0.0004197249286385708],[0.009409770261211174,-0.014647049843612661],[-0.0028264224621845566,0.004746692558792369],[0.005931813165612707,-0.011093782973837283]],[[-0.009868115250857703,0.0027080087336488314],[-0.010120885935035425,-0.0034532231917542805],[-0.001064692010042636,0.00744713548689585],[6.46212211459716e-05,-0.021248456458991066],[0.009480648038365578,-0.0033151198495423666],[0.002018783645119783,-0.02400408262100639],[-0.010778764403497603,-0.006357190600615986],[-0.021898811976557894,-0.007252195371889751],[-0.018037195850265517,0.0003360355030895622],[0.00485057022720072,0.002206665733828884],[-0.0173006362362321,0.006186482406801291],[-0.00476158108904622,0.0019495866387553695],[-0.0023823975345640142,0.013197960101421907],[0.013919456653855408,0.0026873580928168522],[0.005290224689341835,0.005646972378093078],[0.003169174983270017,0.0019871028136383964],[-0.0013508375552579248,0.01538854758709737],[-0.016630144362958156,0.0026506201924892574],[0.014577090760411356,0.008050220872124179],[0.004865773998643725,0.016947445825078778],[0.012234895991997195,0.014037241196125885],[-0.005105139720987978,0.0019029608055661277],[0.003295249981594093,-0.03368885755124317],[0.00044896783320456544,0.011810440810830677],[0.008148653238152255,-0.0030525266206006024],[-0.01173772971893231,-0.01315115521340194],[-0.010937235155677991,-0.0008481002252863086],[0.005109308072481981,0.0019395093453624332],[-0.008903343431262057,-0.01186246800417385],[-0.006486777146682663,-0.005743041031870122],[0.010049097577684834,0.003219279987946977],[0.017561418597764892,-0.009056564324192601],[-0.005500755611540758,-0.00823784777427567],[-0.0007852873889072886,0.01329941702089882],[-0.0009726120698385528,0.004143886164895645],[0.01680322799424104,-0.004256579421147431],[-0.01100093608585272,0.01588781613554153],[-0.0018603660411039423,0.010271290207508634],[-0.001903394717737521,0.009267734193389984],[0.015844384080560703,-0.01345893070334884],[-0.005711723716594845,0.011220526732917083],[0.010600125068314087,-0.006188135006539106],[0.007022277891404565,-0.004732520761557807],[0.01914592967994683,0.007696673842530721],[-0.01745169695235188,0.02274455905884661],[0.0068212685432098045,-0.00665490784038098],[0.008052020326944942,0.019540300806195645],[-0.0036829844009563053,0.003300203886789531],[-0.011513573751337035,-0.011200748886315108],[-0.0007454609016505941,-0.008080777170347211],[0.010839270974532557,0.0061170046167454755],[-0.002414564360717518,-0.01230925417512933],[0.005433431198460796,0.00486842417944669],[0.008636494754685262,-0.009551914395605118],[-0.011684982811128038,-0.0070600789520565395],[-0.0005145423084667866,0.002915122971112065],[0.03134520506772388,0.0036020288520821407],[0.009975786793087226,0.010247777611905647],[-0.014719365558568476,-0.0037861773953495907],[-0.02347175194890319,-0.005416068172848575],[-0.014086529003971685,0.0011789721310141847],[0.0046019882768920505,-0.0016799922358904378],[0.0030008302328467648,0.00635771080649769],[-0.010271906621789083,-0.005672935138464625],[0.012121872329642515,0.010295182122726312],[0.009987715104635527,-0.017599494339476832],[0.004429585432150207,0.021144926809650157],[-0.004488692117569952,-3.564450263501899e-05],[0.01310014871863116,0.00795543507573579],[-0.0024414716928168366,0.012849377138786932],[0.014588737566711146,-0.009151986406449923],[-0.0013261056581265473,0.01980790076249315],[0.0013793794993757057,0.00026846319986905233],[-0.009795414917971304,-0.012807988342201943],[0.0107206699375829,0.005013681172294244],[-0.004636433763996504,0.01599597405159298],[0.007690284844765721,-0.006492506878395149],[0.013056057073494078,0.0062041544719090985],[-0.0039772271282663635,0.016807122070776497],[0.009957444466748984,0.014909972763187231],[0.014199844753848216,0.002318024211093556],[0.02634695725964416,0.0067095860439158935],[-5.810347080950412e-05,0.004299201862211195],[-0.0033576115464505132,-0.0012869870732375181],[0.00699835541044789,0.0008966886941807122],[-0.005828870096580942,-0.00337949927316122],[-0.0010986578510422092,0.006988260070423321],[-0.004405021594434402,0.008315098205178102],[0.012098903727860254,-0.001919448748369421],[-0.011255237989451388,-0.002527930421137234],[-0.008373138595869557,0.017071477657748194],[-0.0034802951701886145,0.011746747146283563],[0.02541535544305723,0.007788403554456184],[-0.027876773472887667,-0.01658197785872755],[0.0037663559824621523,-0.016392205348042706],[-0.0011543977694371756,-0.0016462446993236884],[-0.002837792736405821,-6.566876676678685e-05],[-0.005419734140512332,0.0050852781380315544],[-0.00504052914577407,0.021686516708771225],[0.02367060345805757,0.010371019951744784],[0.002321318229806942,0.007280583517071457],[0.0064748136119296895,-0.021138160400385235],[0.007548634234024091,0.008864133150378557],[0.002389809672889226,0.007698456251253172],[-0.016437855859751084,0.014577746417338172],[0.0016566977654153435,0.003055383984909134],[-0.004891526102534892,0.025119050627963362],[-0.0016297077087497908,-0.018370554845685474],[-0.004755985320435628,-0.006472016527826743],[0.012787897463340029,-0.021312708732244234],[0.0036513195166569612,0.0052547195375382705],[-0.010264293578210978,-0.00212058592256522],[-0.008088043736761141,-0.012702035634746324],[-0.004732099597078742,-0.01213456750394698],[-0.011383898127582365,-0.011994401836275943],[0.004176177271690713,-0.003714089149011199],[0.011828422719910062,0.012430645017139016],[-0.003252429541415286,-0.0032016389332142625],[0.01584859087580793,-0.0026286431992428895],[0.0005252891444522414,-0.008785334582026898],[0.00353132565632878,0.012818382438870578],[-0.005414604856995035,0.0014236924994736814],[-0.01606325880790853,0.010749126165725714],[0.00034386615729870045,0.00942920809295068],[0.0036774176008255053,0.013526518998387404],[-0.00976232890522969,-0.023200780076323278],[-0.004644681744143635,-0.01204167476256467],[0.000696644995478269,0.02442856932601995],[0.0012194628049922301,-0.01527220392800649],[0.012425696366084546,0.007066434216599071],[0.010301472768219699,0.006807110446456219],[-0.016204694846986948,0.0055294449877061795],[0.004234505299268347,-0.018941501236340502],[-0.01808945591098599,0.016871136157341902],[-0.011066599211774284,0.002908769283130741],[0.0006785674811517645,0.005302493203375049],[-0.020673309911377315,-0.012376350858418091],[0.005743248200002692,-0.004686857291785822],[0.006276274847813827,0.00319008555821425],[0.0057263229043449,0.02662380274078128],[-0.010116703203918841,0.010372366453525773],[0.0013410199713015472,0.004459279729849727],[-0.010647738827435008,0.00033383489123064026],[-0.009315990646862386,0.004869425042666178]],[[0.011556119291966378,0.014011506501335386],[-0.004687729627107293,-0.01019210644192935],[0.002325645234549598,0.006680449711737332],[0.009205572912070357,-0.0014438509761692817],[0.0049967736366052055,-0.003630832231691559],[0.0034419159013086946,-0.0005571395278553976],[0.004848706576755115,-0.0038916904155471056],[0.0007049751756501577,-0.008171958625981515],[-0.0080694110713499,-0.007559598200279781],[0.006707796690225535,-0.004233158260837276],[-0.012753035764337471,-0.0013750737190593289],[0.006668417399782517,-0.006685649406196991],[-0.023117971922258618,-0.007570809498528834],[0.008790613733857134,-0.011248617043135735],[0.00048084570485645416,0.0015869562556391063],[-0.007434907361770736,0.010808363379966213],[0.010731887987765235,-0.0028116076645988705],[0.016494917059336516,0.014569385654994306],[0.011260763264333737,0.0021565000513955788],[-0.004350046093597492,0.008867614728659622],[0.012067436455140818,-0.005175527265281805],[0.0017397447022450226,0.002811227295966221],[0.002909156360648923,0.004892580152177606],[-0.007226478093142041,0.005261612551953575],[-0.014109504739686722,0.007998145960462853],[0.009518994142588801,0.011369611634972486],[0.006071800418553577,-0.002851755533264691],[0.01371643341979585,-0.012784944318077208],[0.008153699972680806,-0.002000670694435853],[0.003626610070980386,0.023628278407038055],[-0.003160727602374735,0.006284902473103151],[-0.012334819846519188,0.0015610486148426095],[0.00788903991375242,0.010051659978487235],[-0.009288454758906042,0.001776722149041417],[-0.0033264108987056795,-0.0050365005768695965],[0.01681704878371184,-0.0002985126567073799],[0.004878658144341746,-0.016297587504031364],[-0.011559501810520005,0.013518885467508514],[0.001541743218041225,0.007582588512624641],[-0.004461032055559228,-0.004360831686890004],[0.0016353041865844482,-0.008364516675852347],[-0.0037893046979136104,-0.002924647022398425],[0.010031287684820468,-0.0019285894733907741],[-0.0144558668258677,-0.017921403267253225],[0.004050220060245097,-0.01029086349548724],[0.002840007971482482,-0.006398449126546791],[0.0001072058019802979,-0.006477187887351389],[0.004808161623996657,0.0018366344784880907],[0.0054315622428316845,-0.006632017117637115],[-0.007511434936582151,0.005234039153269938],[-0.0013672411395383168,-0.003467025496753394],[-0.0071463456373552165,-0.00245094634699779],[0.0014922427257228759,0.0393048198533067],[-0.0029766378892842,0.021854985954072655],[-0.01885968632800637,0.015627303469029425],[-0.0021795655972134355,0.006252100692034687],[-0.009344645695038522,-0.0058600681055459335],[-0.011699159405010267,-0.007226214789160624],[0.010632319779701676,0.0018381402521011432],[0.012663593155267517,0.01095602720504033],[-0.002173948128305257,-0.009190991094307675],[-0.010848043668039022,-0.014025284775971031],[0.012729424291732416,0.012410511997114829],[-0.001385703449192728,0.02633750361780499],[-0.02320643503398838,-0.015094145645902475],[-0.006207333531945934,0.008892689311158327],[0.006098839021767611,-0.01659401491427649],[-0.004801254633112728,0.0035352764167776527],[0.020588549332072905,0.0043423272856956555],[0.00450336571012081,0.0037848261922150445],[-0.012511576644410919,0.006209979043130086],[-0.009998626557475111,0.00754906161292555],[0.00999066714289197,0.003972762645188739],[0.001841183978534459,-0.006173228229682658],[-0.009289442640890471,0.005604648427567087],[-0.0101285915760572,0.003384932947430585],[0.02240912757420608,0.010119954741478343],[0.010889420414853097,-0.003032474532762492],[0.010336933912283608,-0.003638457253674781],[-0.0037944082390898,-0.007706264945270281],[0.017419045676827505,-0.004334681548096995],[-0.0016524943236992575,-0.00427514397970439],[-0.002021392703456683,-0.016563128341286596],[0.008314640464976583,0.013841778143383651],[-0.01460924995085677,0.00847285118309159],[-0.017111792493024258,-0.006378849012302747],[-0.004224088790213849,-0.011620841643976686],[-0.0009294455805816408,0.0003075158267129307],[0.006080167700307977,-0.0038616109283637753],[-0.006772878894646006,-0.00876539311275617],[0.009493674657835582,0.019115745652758767],[-0.0030428300591106936,-0.0018279921378683947],[-0.004078363406201254,-0.0031245705912309437],[-0.0024179903519058197,0.010210772679434592],[0.0015726641352142188,0.007377558407400943],[-0.0014845020658317773,-0.005516684113728073],[-6.965590012367965e-05,-0.006808224127922549],[-0.006122389953800428,0.015217579200460987],[0.017232239386332407,-0.021877053553806043],[-0.0029747217230887283,0.011101972095458039],[0.0022335960087991177,-0.01646529193715869],[-0.00300275521606305,-0.017503153581854232],[-0.009191587023918413,-0.0016830555020624623],[0.01914018320759852,-0.006167447451523426],[-0.005347475079614725,-0.011582533722135812],[0.0044124982559561555,-0.009681884520248964],[0.006609472039991225,-0.007760688400053061],[0.0019515664071827925,0.007466402999781132],[0.024925167328935228,-0.005786798406990019],[0.008683949152769403,0.002601492721061355],[0.011032234551935766,0.0036671093299600714],[-0.0024894014258008412,0.002110043680901],[-0.020740001773192004,-0.0051299672504700935],[0.0118827001365579,-0.007083510060495232],[-0.004287527878358322,0.002302966451716834],[0.008255011046085605,0.0020887555043841073],[-0.00614466897526923,0.0008878170677652464],[0.020059733417403323,-0.006091924348351277],[-0.011462643517681675,-0.019024462507406543],[-0.006622171477728255,-0.004308628409023788],[0.00538330611477373,0.0045448096776932205],[0.010204987696858018,0.00496044571203498],[0.005870871442033905,-0.008881648032766797],[-0.02025253118653754,-0.017571784530386648],[0.02031954658727182,0.014642361732311442],[-0.022330390102795306,0.005918366638436247],[-0.0022036990283325606,-0.004849988181002783],[0.005933895497286854,-0.03139653539227516],[0.012309593883098564,0.015284747028135119],[0.011412812019503065,-0.006575622313421804],[-0.016218292460193528,0.0024487181575595044],[0.00747173098546489,0.005313555600094113],[0.01800684693868131,0.011978603840827521],[-0.015003530574874493,-0.015329552397391174],[-0.010434732380090052,-0.007487252799605531],[0.0154068487187832,-0.00168544912343376],[-0.006445015353483431,0.004366546948432795],[-0.0054444406243273295,0.006924433656009568],[0.005567126425255179,-0.006254264143146662],[0.01888317255716148,-0.0016839073849534043],[-0.004485533397481926,0.005230186670677852],[0.014937438680066912,-0.012729613371649564],[0.006398175734051217,-0.004294751751501523],[-0.0007612100781865998,-0.01232907594934315]],[[0.005461705161192359,0.005622753243330451],[0.020998605815498624,-0.01669129902886242],[-0.011582615429835193,-0.017545402920731926],[0.0004739237455079011,-0.007061451728477743],[0.00540573240741514,-0.0019950563423629256],[0.006508473383540234,0.00532575398955607],[0.005970797023409428,-0.004013824159895797],[-0.00562867159916636,-0.013198758249176027],[-0.021001045033266597,0.004092690599996089],[-0.009499434581990707,-0.001034960344635751],[-0.014877001720450842,-0.015641623658735573],[-0.012888346016448005,-0.02042928168012978],[0.0018700390681966705,0.0066850821015307675],[-0.002395747112824076,-0.006565771705416119],[0.002171158287311675,-0.02224810367518706],[0.001550971168691382,0.000280129669885732],[-0.007704248205025776,0.000439041955135595],[0.006101267779623656,-0.00021830847844409203],[0.001297535171818622,0.0068435211933805095],[0.0006648136924423276,0.002485077967288257],[-0.001399856661456565,0.014141321429121329],[-0.0026058504451602,0.002328428420751784],[0.010295670365322043,0.024250343751158327],[-0.002539509571975659,0.013793258913810556],[-0.0027352870380377876,-0.003332437094246674],[0.00630177634642045,-0.0014154870656608925],[0.016003536105282573,-0.007919253811029769],[0.0037026480708216413,-0.01877627401673724],[0.00401980675333052,0.010114856446609541],[-0.0008060118952890463,0.010764714281192326],[0.0007993245149175412,0.01370622660783276],[0.01399142572907534,-0.003893182685277372],[0.00045444773941851445,-0.003522722625606686],[0.0010543062244207633,0.007521376829337239],[-0.00156506312937827,0.004073881577094388],[-0.00829889842997751,-0.0011262434311588368],[0.0032785595749773373,0.005758405358190719],[0.007334200722523058,-0.0032557730496723756],[0.0037419722017514806,-0.014635267214798738],[0.016496679696251355,-0.00603720857055887],[-0.0028815828054712753,0.005702614133594888],[0.028091999954277563,0.0007110570901990644],[-0.012058825989477818,0.003110959520044511],[-0.011440370229130876,-0.003627961870557932],[0.009660957785494808,-0.0009033447977132352],[0.010569326404652572,-0.004927813762907867],[-0.003773803995015792,0.011810475308588314],[-0.0009650651355929693,-0.015403055968697357],[-0.021247736592968452,-0.009530115151330596],[0.0011470523989072375,0.0007614152987629034],[0.013490308346423119,0.00018288480310631877],[-0.009078338490768192,-0.003931478985224325],[-0.003250918305564769,0.006378189894868245],[0.014694948901780525,0.009904182904086765],[0.020744002195534947,-0.009284875014401351],[0.007074833568024886,-0.0001520484786022452],[-0.006271187961289712,-0.0016072405583853265],[0.012843847193843579,0.01063842064545216],[0.004488337239429268,0.0006599075805248725],[0.002066934029655167,-0.01233634128129382],[-0.0026958348430912225,0.007964578774236473],[-0.012586946736567814,0.007984211701368845],[-0.0021487516211736563,0.023355738169080566],[0.013105042986419778,0.006214256478358313],[0.00754670574320388,0.0032895108553975734],[-0.021314826888103853,0.008763907974067574],[-0.000877968201381945,0.009037585110098683],[-0.0013387052983311917,0.0023553181199479937],[0.011993997024544237,0.00998941387438463],[-0.006200461611075997,-0.006057316016783553],[-0.010037555027748415,-0.006879619521325686],[0.0036782923123489623,-0.017097929828373132],[0.01114797842839559,-0.00447339582098438],[0.0006859278741080171,0.005499095846423795],[-0.007785124510513273,-0.006874875950618404],[0.007886954146370466,-0.003478180446166958],[-0.003100585704078679,-0.003063264477977942],[-0.010543249709521597,-0.021973820360293918],[-0.010069806630793675,0.0069111594946316725],[0.008035454630015908,-5.124573333232214e-05],[-0.0158932871396721,-0.01035438006075996],[0.012892261450120141,-0.006825625703234672],[0.000393547340649082,0.005439808340994499],[-0.0022319099081595565,0.01461549899665309],[0.006494319147592803,-0.002764042467206315],[0.0026154453301501226,-0.014486638830416083],[-0.013890206516311012,-0.012589549096616894],[0.0009463027230519967,-0.010677544074685257],[-0.0014188515972178,0.002218942180807109],[-0.008781348490371703,0.031400597964061666],[-0.005572579209955087,-0.005811425126268355],[-0.01836359407143743,0.021659165168379527],[0.0007504221216217071,0.014862218156637744],[-0.00588969971844775,-0.0064090814695358465],[0.0105962414681377,-0.011374228588134196],[-0.018397491125100245,-0.007814395068227216],[0.0034090126559029295,0.005440428935804955],[0.0013444698045431754,-0.00808231191278425],[7.327197845079068e-05,0.0069829083508722726],[-0.014279572171570913,-0.0031600231552490923],[-0.010807421554058734,0.0010371472533273471],[-0.007695391353863154,0.0317497666052897],[-0.001266257062434193,-0.007621885601026759],[0.005198603797474853,-0.0007908644477785114],[-0.005169321194257633,0.0023497012438725164],[-0.010979110245532952,-0.009710556707665506],[0.0024709417672994873,-0.0030990455503555354],[0.0069163183750577135,0.0032204424076812217],[-0.007924929837671952,-0.006729020990508524],[-0.00066347738947178,0.0014237379233446087],[0.012909003932760831,-0.0036168614169168104],[-0.013190328185207427,0.009217503840342716],[0.003806700303217922,-0.00857462137943969],[0.004793369423789143,-0.0023131845673907488],[-0.005910382424162201,0.019023949695529892],[0.0030420034111313466,0.008703928335434668],[0.003096538779273038,0.012039250844470413],[-0.004271882810998571,0.010371679050887055],[0.011744512180138621,0.008490907869706852],[-0.0052195159265496565,-0.02280789516370902],[0.0002916631063381696,0.0027792354771111914],[-0.0007066087887141376,-0.004911892980404938],[0.0049079058253795405,0.009866332457655296],[-0.0003378767837991692,-0.007774584067052238],[0.002180920526460861,-0.007669532790510232],[-0.004257533514691233,0.007254575791789803],[0.006806909936086603,0.009100355592441661],[-0.012211576357329114,-0.0025102423487369536],[0.008886256137008237,0.011281865074546527],[0.014631134685010976,0.004738629037710617],[0.0034562672575733037,-0.004161801824814591],[0.009839452093429762,0.007323875578516497],[-0.0038883452466020483,-0.00037358972024795125],[-0.012846269667137944,0.011420625623391028],[-0.010143690597424267,0.0007553661539115907],[0.021065276572655105,-0.014475080110137697],[0.010091952088981065,0.005579170607444687],[0.012120081559604623,-0.0027124742825608986],[0.002800831986263479,-0.012693557649402061],[0.0019086661022168754,0.007353557268497542],[0.00034335573707465884,0.002755737196379057],[0.002595983078449068,-0.0161916389042705],[-0.003950724763146216,0.010885473248428517],[-0.0010457422302304553,0.008271092171147739]],[[-0.022786361677385014,-0.0020678027568609555],[-0.00029689414520132153,-0.00430763433912502],[-0.006725484051562201,0.01727195385976175],[0.008985837568918277,0.0136412638086755],[-0.011754247901702833,-0.020929252417164777],[0.001435545677543329,-0.013776843815272187],[0.005640266775274638,-0.001028277468911233],[-0.006692047425559934,-0.0040009873848593485],[0.004453208850167914,0.0008223734859065021],[-0.0001377736453410732,0.014195104149786962],[-0.0016793595669399258,0.01582228281163231],[0.011444129602786087,0.004506512051731998],[0.001536174584457734,0.013436360016556837],[-0.013467819921233144,0.012190749569959289],[-0.0021273009211179314,-0.011365711854447543],[-0.0025317717030699178,0.0034855516327916085],[0.011892582771368685,0.012016724234176384],[-0.007362199570311468,0.005778039700109532],[-0.002782140919750079,-0.007954181331481734],[0.0015132678326168743,-0.010142521262277627],[0.020854118859698397,-0.004463965658989453],[-0.0038252264423673213,0.00024979572780895793],[0.014546191709714487,0.006855414118758097],[-0.016770183902760073,-0.005679400194673998],[0.007704410256390618,-0.009283604037470843],[0.008429852505604647,-0.002076286673694394],[-0.014636146700658232,-0.003193424090393099],[0.0017778837895604644,-0.014122382356960365],[-0.004856346470668833,0.013829106304331415],[0.004952409898435801,0.0028927590882162025],[0.013179549072390467,0.026182463426446142],[0.006677307678782907,-0.017514478600194346],[-0.008083710202938297,0.0027918795783160606],[-0.01219768232840817,-0.0009686268515404451],[-0.0008783153870735648,-0.0008371376239937546],[-0.0029557777504146485,-0.005789530917573135],[-0.00849462274645823,0.0007186118115320109],[0.0014048377615492181,-0.01563258448738534],[0.0010302985918692463,0.010203190337103391],[0.0017135284954263225,-0.008031400203379759],[-0.010054974383798434,0.0005340580375417987],[0.0031098944069296477,0.0004253640541912383],[0.0030349610519610462,-0.0017639481233807808],[-0.011798182602771346,0.008079177060587734],[-0.003679638005110091,0.013226741217361289],[-0.0032773237169903624,0.0006332801849305277],[-0.0072154608484833,0.008049958349368991],[0.000848027262220487,-0.006086443533236582],[-0.010229039169419673,-0.0006704297378297753],[0.00441049764697269,-0.012040441101367849],[2.0169844801434865e-05,-0.0006824685403486947],[0.0017685849311310457,0.0023151338688935015],[-0.0029767397813938697,-0.01650108836675137],[0.011694007133963782,-0.0014088009971620274],[0.017323876544313752,0.003568553849217876],[-0.011001417288299762,0.0021235284794858074],[0.003160488645507928,-0.013570422144212923],[0.0006076178618569857,0.002162360002563391],[6.484794739627724e-05,-0.010252123397737425],[-0.0008319604972471876,-7.912801037727335e-06],[0.013111963660908731,0.014946379222225172],[-0.010127293895892469,0.004964568834860432],[-0.0026503468227861244,-0.0017565715694150923],[0.0012180581040688863,0.002865681962383072],[0.005170996321860392,0.016048550745549273],[0.01269211720134172,0.009707217158219462],[0.007907226011653858,0.012048985709062711],[-0.004788909559663699,-0.010970987911810247],[-0.007163297229054072,0.01582527413806643],[0.009794154627570615,-0.019355630808901524],[-0.010877713058287034,-0.01672593179724277],[-0.007282727964522928,-0.001698303791937594],[0.014612791110358202,-0.0018741178238422026],[0.0047085483580014565,-0.00556032711473366],[0.005671473270928855,0.010152654836296206],[0.002370804039574246,0.009895340835654009],[-0.005246865722188167,-0.010553603378405094],[0.020188130666198366,-0.007136177808419334],[0.0012490328773734926,0.003461465915233216],[-0.01269357896655967,-0.005650098610698741],[0.0029638548176056457,-0.03436681378265763],[-0.005426028919363579,0.008451432964988181],[0.016366358698669693,0.0026581605873304383],[-0.01518140251116338,-0.0005463056963984176],[0.003610942239997472,-0.014558442853098966],[-0.005803702951963676,-0.011756020921652711],[-0.007988071389155025,-0.0006678650573802391],[0.0054547577981034455,-0.0069355290837731995],[0.001417895067503876,0.00342757405306878],[0.003413501919474362,0.005650476005370885],[0.0022388030091769263,-0.004488795347450766],[-0.004959834079878766,-0.01727932296339426],[0.01741150718242331,0.004617567231977981],[0.0035740444437287857,0.0047697606397821175],[-0.0047735007081312975,-0.0096764905919064],[-0.0023326203632836164,0.001199446589691139],[0.017445844408199435,0.005451052092558118],[-0.010281968998345851,-0.005877477631583844],[0.016530863240420045,-0.007979650747367626],[-0.005000304699068079,-0.007774188812234647],[0.006995525637795407,-0.003053837268594375],[0.012699325084136726,-0.003648833860338868],[0.007964206625874985,0.013334749400014017],[-0.014144309475572603,-0.007890872572536765],[-0.002218178189794945,0.02083525444195974],[0.013837040238689901,-0.00439999394897768],[0.0018421496602512278,0.002614726585872848],[-0.0029909597523877186,0.0011528073639004521],[0.005538832122754961,-0.0005557564331886146],[-0.006243462501010579,0.011906624174975906],[0.0036717218427352377,0.013318837384857568],[0.017936322138037645,0.0032634944828840917],[-0.010607074465782518,-0.012950228710128568],[0.015017157589117258,0.012749117394413357],[0.007370549549801683,-0.01166873565499008],[-0.0001623689570213532,0.0015427297201961998],[-0.006540839354345185,0.00349570168008442],[-0.00676967631100922,0.0018509962070061637],[-0.0020921483622242465,-0.009844377242960601],[-0.007719988434195185,-0.00817767450596099],[0.0006199495700241791,0.002256776057972525],[0.009204135591865134,0.004270000093275001],[0.006238909828035618,-0.0007333088261357347],[-0.013358298820583689,-0.005531082527549262],[-0.012061486604314825,0.0007923580525211532],[0.0007980268204190634,0.01160047744881592],[-0.015307263187012995,0.0016188982175304434],[0.00457479586727324,-0.002348581517030648],[0.010985571634728112,0.007343602995392747],[0.005117900919951929,0.011314669505580115],[0.00200369538763926,0.0075307068167513175],[-0.003976539393605224,0.0033215516605778327],[0.0009750955097702681,-0.004986524641153085],[-0.006205839129474977,0.018939299680120064],[0.013332287462695352,0.00567890239714423],[-0.008311573600470794,-0.018231680378131238],[-0.0073801991893076655,-0.006830459882013449],[0.00510769049203867,0.001176612362834365],[-0.013733711637799722,0.003761726480623452],[0.005664478642315769,-0.01574293203674509],[0.0013604694065281553,-0.0036660318263029004],[-0.0027925516925136154,0.0020650496763346578],[0.004149732137256956,-0.00813862884568289],[-0.011078556029302803,0.010827453198050866]],[[0.014528465843213075,0.014173288160727835],[-0.008076269512533615,-0.013759619583866154],[0.016959498230475274,-0.004676439408867968],[0.014044199185607412,0.016995200476265994],[0.006272813117845615,0.013898434555164367],[0.007336478274783611,-0.002785020478406928],[0.0009813169376175148,0.01941620778662689],[-0.00041892570880340497,-0.014907894943357378],[-0.005402743123171424,-0.008337902133070202],[-0.010672940796931709,0.007850482198963987],[0.007004061306560854,-0.008326358535362406],[0.008886551078972823,-0.010421023304063921],[0.014728264408793323,-0.004613942793107585],[-0.004783823298197739,-0.009911457794723869],[0.00450817148107783,-0.0010528108148841653],[0.012219185799066237,0.011862372197131689],[0.006804083467382384,0.009704820262559867],[0.004446095074288125,-0.01888215156771217],[0.020135777166853344,0.010590664051824263],[0.022422992023750497,-0.0032389485401325573],[-0.0071447955597844365,0.0075106268935881595],[0.0052619005199504975,-0.0023927084730343304],[0.022382734741374744,0.021859540583139277],[-0.012010677859662778,-0.003368531310406926],[-0.0036185496691814516,-0.0038348206508245523],[-0.0037667110031323996,0.0031542143384453666],[9.409993658821038e-05,-0.01755861236533269],[0.009467652375329063,-0.0030408950902254287],[-0.00113715377116365,0.002525146533346765],[-0.0016142078715640517,0.011541235507217713],[-0.0007569793620981904,0.011175767442146213],[-0.031002011548138288,-0.009917235993346322],[0.001879975985602666,-0.0008408046416624101],[0.008928325289688307,0.0036768628536028953],[0.0007639750970296457,-0.0007010224196151693],[-0.010502875883509458,-0.013515421547877325],[0.0018743890815525175,-0.0027675584288332387],[-0.005647420355254546,0.004791475309505679],[0.005552313696136917,0.006560864765793821],[-0.008389315487161451,0.017916198453209606],[-0.020135505382613078,0.014235981223450288],[-0.0009175872573167578,-0.0027499988055935537],[0.01379981815293026,0.007350054729897965],[0.01870461937742213,-0.011604157848619089],[-0.004609568940227348,0.011202138465881846],[0.000634354176030119,-0.003716341683566661],[0.017084273107647374,-0.015278811088537358],[0.010329636823821252,-0.011093405705300841],[0.013842094036685036,-0.003215426448324818],[-0.008745653760347505,0.01226369162486683],[-0.0003148975802804657,0.00028754174440622285],[0.017503479730276026,-0.015444688938931807],[-0.004603741083118377,-0.0024730807170702056],[-0.0014817103580933608,0.004071698636213958],[-0.003045490543575073,0.0009113470857452205],[0.0033819896436658534,-0.014961540540822165],[0.0005653634919673398,-0.0009803585922119934],[-0.0050619095216077,-0.004553265873653895],[0.004736983355638792,0.006331061964967913],[-0.0011512185942105,-0.001979742959032945],[-0.0005958123471402723,0.01013461237172967],[-0.010224611545351672,0.011263764720919252],[-0.008633913348116683,0.01107223104704625],[-0.00766647325393296,0.000992907791856588],[-0.007034529920214927,-0.007546670554474851],[0.008161261246847263,-0.00096622126313932],[0.018844224907162376,0.022401773915242826],[-0.015424990687861722,0.008835771403441047],[0.005411784932031533,-0.011308723983653467],[-0.015120886603615696,-0.006187403346277344],[0.0022110845238691983,-0.011815360390186177],[-0.00801171195427932,0.0032848001992219315],[-0.001321628057798044,0.007050136665344992],[0.0005822711098105407,-0.01949676061158313],[-0.007252772808293199,-0.006655895149597249],[0.0006074179770063882,-0.008175063400046086],[0.002173697624634211,-0.02623243332912821],[0.00020079296912867508,-0.020571340550871994],[5.862824953410282e-05,0.019345638388383234],[0.004945887944635674,0.014487630796816954],[0.01630145031203533,-0.0011407860802513758],[0.009912401587878043,-0.008472065288122915],[-0.009359740028835887,0.017146874917968322],[-0.00033013870875927263,0.010115674125653666],[-0.007269304687358829,-0.017431283664557196],[0.0015434129206453357,-0.0029928409638320347],[0.0029885390034975075,-0.014659076495570902],[-0.007643077269644154,-0.003733997073545728],[0.010545973239237302,-0.00044973692320142655],[0.004232315553435192,0.017511488233684754],[0.019137857529451685,0.016051577201248373],[0.015805089023394985,-0.0022511720451714456],[0.008063855206757745,-0.004971969981665813],[0.01267373345822246,-0.010937142135150228],[-0.0038755956075146518,0.0001458760280264764],[0.008527722846671595,0.012711664927924441],[0.0028440006514420793,-0.009090957846623983],[-0.003849017161759199,7.816110947770488e-05],[0.007876944047206591,0.009479907438044008],[-0.002972016686377072,0.001849264380033168],[0.005480641905160871,0.00715577277572261],[-0.010042338789402966,0.012883127820208734],[-0.009190594357141733,0.02128198279500894],[-0.010285347406243072,0.01237128620446264],[0.0009658755326380847,0.02579153990443639],[-0.0007369761324182331,-0.008042855171554989],[-0.007938681605429744,0.0061477507206489455],[0.0026001009134476857,-0.028008059845654118],[0.0064070599890255885,0.005764914687735748],[-0.004353542319280126,-0.005127078599237033],[0.006011872578213338,-0.012846512633381076],[0.006453404522464388,-0.014217348866003232],[0.0009756893045594923,0.003693404919161186],[-0.004809100283371425,-0.0013892049986373492],[-0.012653503305388893,-0.005697674778529005],[-0.0009478182403647828,0.010624679608450297],[0.01856725518086841,0.012986093327721857],[0.008718279113349168,0.0011898457186476697],[-0.015941957374579135,0.013612207949062004],[-0.0018112751622002415,-0.011795857578053416],[-0.012859550158488876,0.003052003481629249],[-0.008185665553821598,0.0029583733001378146],[0.016465965605158374,-0.014542602742108807],[-0.014005938225951012,-0.0030729259407075555],[-0.0012942748741473632,0.0171048203172389],[-0.009067471580796087,-0.006861797782512521],[-0.010833156067841975,-0.007279261600872812],[-0.017139713728816425,-0.01248134418784301],[0.00806980606168742,-0.00015646650344557005],[-0.0035522792476322704,0.0062686536089946975],[-0.008500413747215071,-0.011547077207568215],[-0.014774207087369907,0.013320684022215793],[0.0026425088256454296,0.0021487762145051253],[-0.018764154149018674,-0.0068874112719509665],[0.013931797482504508,-0.00035840975246214084],[0.012406949857412728,-0.007555943350668725],[-0.0016167894677995554,0.01592844091483497],[0.012910591685967383,-0.004149336639683452],[0.009707262153857508,-0.007976087313498621],[-0.007553455730991525,-0.004909065707545108],[-0.015724925183689134,0.00028732063864862073],[0.01099898929652046,-0.0028713503358652566],[-0.011392185454293949,0.024650375714039212],[-0.020525998739103598,-0.008410789050065934]],[[0.019910723055343152,-0.010183405815394255],[-0.013095136416950037,0.0042852631141744955],[0.010713373769099224,-0.0030709001304286615],[0.010993978812688236,0.006321678420151551],[-0.015090513752151268,-0.006438993667039292],[0.002274778706271161,0.004828908511197518],[-0.00264843060516116,0.0004996991394813455],[0.01222025960266401,0.0020821252820798952],[-0.0008349207707829281,0.0012398818401766708],[0.012283511782772972,-0.0055982599727023245],[0.006202728687347073,0.0002652002681492623],[-0.014237912639186515,0.002589621542521477],[-0.003219109392847538,-0.005429637926675944],[0.012635069805093112,0.00440225415667558],[-0.006520612731065997,-0.007564217053336829],[0.015261148610798116,-0.004859071419214507],[0.0009176753992991575,-3.0482753069443905e-05],[0.0089931615856396,0.01321713594472882],[0.008450002506444374,-0.01937043975322303],[0.0030456400667339774,-0.0009391640336576424],[-0.0023696755764021967,0.0018026299786515414],[0.0162989126869766,-0.0050360148848996936],[0.009835580734459086,0.008642547312613734],[-0.0030268961886326987,-0.007781660449040051],[-5.637301902319198e-05,0.003133008715268519],[0.0030893618480244134,0.00012895920849741952],[0.00156975817229087,-0.006353474660402983],[-0.003963130320807367,0.0033583672995291134],[-0.009790259340658568,-0.004243757077826457],[0.018418421054201918,0.006852170760776554],[0.004191423898976049,0.0037903795732824887],[-0.0017373242703153432,0.0004226849050969686],[0.010774420519129158,-0.018784179852369076],[0.00927471294307051,-0.007815910807433251],[0.005979273569952618,0.004924566157357754],[-0.006342045014017946,-0.0020633834859458294],[-0.011542773033448306,0.013071546005334167],[-0.012750805915128168,0.003224508523019866],[0.0022554645916071925,-0.0032642568560797575],[-0.004372105591268033,-0.015726532753772813],[-0.0025917555620914657,-0.020142789156085278],[0.005728042958820819,0.011944430690618079],[0.022147563099700274,0.005523816684482039],[-0.012115938189713238,0.006381389896645993],[-0.008831414626929872,4.1394261268167085e-05],[-0.013040248974441136,-0.0013376655222886796],[0.0037974160212479206,0.01304461463178741],[0.0010134782437472764,0.002706201402424902],[0.00015890059347657432,0.004989291622394321],[-0.018941989359989645,0.00029798860646624615],[-0.0037337531884368254,0.008035034063581359],[-0.01291045413126282,-0.0016328418490510496],[0.002042061905080709,0.0060252531021547096],[-0.003711043006039063,0.0008243415823683031],[-0.008462140270500584,0.0009866854671434372],[0.009834793250562943,-0.011704324379163928],[-0.014965359537360928,-0.0015744241181340146],[-0.01680295173675822,0.008791746520171548],[0.0005308834764620794,-0.00972541590519505],[0.002528360483633042,-0.006474415639699955],[-0.0008024306346971107,0.000691527356314248],[0.006733416470731428,-0.005272307488078177],[-0.005072714929584516,0.0066160773959931364],[0.010607530131149925,-0.004081089683098563],[-0.003989996140679968,0.0333588540835899],[0.004410977660363129,-0.004118657100897293],[-0.012571613003290256,-0.006212837267869812],[-0.0037091818289728684,0.012491175699896722],[0.006929208762596885,-0.013178794434324553],[0.008181396980379604,-0.01145385732391164],[-0.006883779713616562,-0.0029979984690073173],[-0.004110805541314037,0.010250272941561184],[-0.019703164170637652,0.008272397316798236],[0.011764237768217691,0.0007893828493524012],[-0.01488826966828505,-0.010489842687291487],[0.004044086689928287,-0.0023150969299515632],[-0.013736102930285848,-0.0016099865009746692],[0.007672637318471279,-0.004034655767969991],[0.006646365635871463,-0.008120787542516817],[-0.0022491194727385934,-0.008137881260708068],[-0.006998402517757615,0.021251046962848973],[0.003727494803948167,9.663574176260433e-05],[0.006194379487138262,0.010681545020029588],[0.01000470957439301,-0.012242012699156136],[-0.01643504575296049,-0.01535668653259893],[0.013097188231409203,0.015026644681578457],[0.009159807255523608,-0.004332425543534822],[-0.009940521274232964,0.018529114901842815],[0.0006074034018282785,0.02083170499137101],[0.0033110062252010666,-0.012708100409171454],[-0.0035295926507830934,-0.00588579754919698],[-0.006522738088174224,0.0014849901160906753],[-0.01477860067513454,-0.0204446543834576],[0.01122177388872339,0.0015982472092364657],[-0.01166736093263928,0.0024874228395458347],[-0.003590151905646954,0.005315526331572158],[0.003977947001200332,-0.011630675617851784],[-0.003573798320706607,-0.006819327460232467],[-0.00699927027167297,-0.008816776530028332],[0.003287106506675498,0.016270619781566412],[-0.002056346307486837,-0.01366933205380446],[0.005929466934882979,-0.001888819077748881],[-0.008747533671172598,0.00799571826846983],[0.00969861702328542,0.00820698305491863],[0.005073381857195083,0.015704407509575833],[-0.009784920756433802,0.001659803984938019],[-0.006220999402472135,-0.013892269676324568],[-0.0085753944753275,-0.0014538142433839865],[0.0038438518542097747,-0.01507366061657361],[0.0008547995050663493,0.0023471491211915965],[0.0020438126135351696,0.0062201817612871175],[-0.010566820764684157,-0.006592875176501253],[-0.008447164396141705,-0.015695481067641844],[-0.009194682825952365,0.010472751542872137],[0.0062079327688066436,0.012423600317395249],[0.0005695541046006297,-0.013629003463513232],[-0.01275919049068526,0.006505627598343709],[0.004935276177304048,0.011808135251684967],[-0.014875899189117029,0.013119093607852371],[0.008088382494412402,-0.003665762079201263],[-0.006259545922265797,-0.006901553770982618],[-0.011215885209303387,-0.00632607903487412],[0.015008372386483336,-0.0010523113930626462],[-0.005157202995994626,-0.00184995178981728],[0.004184559877665644,0.0015710137831410325],[0.009025098244298573,-0.010552123394469023],[0.00036937577936246727,-0.0003430645419250807],[-0.0029504668375827984,0.02357081315121353],[0.011585461419834598,-0.015075540256338744],[0.002523917186573662,0.01983156816683187],[-0.015000533888852153,-0.0046265560716966985],[0.014001709597761505,-0.0009779575472883787],[0.01132948929667229,0.02379842302237777],[0.009377469380185032,-0.005397223186109564],[0.0026820101054268576,0.009207094570458534],[-0.005573734583782143,-0.0035598397890047283],[0.014215293947463981,0.006031652981193039],[0.010003183388032636,0.0007068677520314906],[-0.008912183383099426,0.0038341546851246343],[0.003670538813040217,0.004341377768369269],[0.0048584174484599596,-0.004254310694251642],[0.011379008903721092,0.016072438906329246],[-0.0007054543186339464,-0.00321897815560068],[-0.015427475210232054,0.007563723477786252]],[[0.009318313552676491,0.003429682994141814],[0.021995934315190084,0.007028625954167205],[0.007288821534331701,-0.009905946531667811],[-0.009026756290122366,0.0026246700299246664],[0.005670806545683474,-0.0016620904703059567],[-0.004236113597418503,-0.00857081686071467],[0.010781103098540674,-0.007007760906083908],[0.0013993488183658455,-0.006633455389894041],[0.0088642750774772,0.008203583666919992],[0.0006972425607488449,-0.006825799162933913],[0.002070358613082478,0.0005552302105705833],[0.0009853914110358125,0.007753976725998351],[-0.007629546069146372,-0.013484437404553736],[-0.005507171634155655,0.004377261809576915],[-0.005339789838944704,0.004917357651716005],[0.006297179827436059,0.013640129080417195],[0.00971143430327949,0.0056091403482154524],[-0.0008806120471232005,-0.011711985733405208],[-0.00998458855749999,-0.01337991526939742],[-0.008191811483423425,0.013969784342451464],[0.012922312507832765,0.010909844279814902],[0.0038607751804399233,0.003182432178361911],[0.006320886827356213,0.00026012960455209616],[-0.0009775542418182426,0.002217664790914957],[0.00376074601475199,-0.008220115579816938],[0.014413423539416933,0.0024591514264275397],[-0.01852364638258644,-0.004810482661840268],[-0.005375766769324439,0.004597621490783709],[0.003312841270971903,-0.014364411831069365],[0.0011261911681095691,0.0028353047475700426],[0.00037548887196527645,0.0033333917872723725],[-0.0034540100726224198,0.0006806248490626417],[0.004056586758633237,-0.002245008678384788],[0.009443456430809221,0.010980981907127577],[-0.019104547075559742,0.01069713534428361],[0.0013060074440296604,-0.013752211469680191],[-7.541915191718908e-05,0.010544304982924602],[0.0008075222208049774,0.0013674342661857638],[0.007500590960551259,0.0021477504405874983],[0.003063179570376845,-0.004217396319662689],[0.010910765567078396,-0.0033902812308618073],[-0.0019489815972068383,0.00021774608667761886],[0.002527361528132644,0.008045431979212491],[-0.004181113274415691,-0.0011482899849874616],[-0.007608076228711292,0.023754282443266536],[-0.0018004866736320109,0.004813406264679207],[-0.017339970555398345,0.000988502436397354],